{"learner":{"attributes":{"scikit_learn":"{\"_estimator_type\": \"classifier\"}"},"feature_names":["Job tenure","Age","Car price","Funding amount","Down payment","Loan duration","Monthly payment","Credit event","Married","Homeowner","Monthly payment to income ratio","Loan to car price ratio","Job tenure * Age","Job tenure * Monthly payment","Age * Monthly payment"],"feature_types":["int","int","int","int","int","int","float","int","int","int","float","float","int","float","float"],"gradient_booster":{"model":{"gbtree_model_param":{"num_parallel_tree":"1","num_trees":"100"},"iteration_indptr":[0,1,2,3,4,5,6,7,8,9,10,11,12,13,14,15,16,17,18,19,20,21,22,23,24,25,26,27,28,29,30,31,32,33,34,35,36,37,38,39,40,41,42,43,44,45,46,47,48,49,50,51,52,53,54,55,56,57,58,59,60,61,62,63,64,65,66,67,68,69,70,71,72,73,74,75,76,77,78,79,80,81,82,83,84,85,86,87,88,89,90,91,92,93,94,95,96,97,98,99,100],"tree_info":[0,0,0,0,0,0,0,0,0,0,0,0,0,0,0,0,0,0,0,0,0,0,0,0,0,0,0,0,0,0,0,0,0,0,0,0,0,0,0,0,0,0,0,0,0,0,0,0,0,0,0,0,0,0,0,0,0,0,0,0,0,0,0,0,0,0,0,0,0,0,0,0,0,0,0,0,0,0,0,0,0,0,0,0,0,0,0,0,0,0,0,0,0,0,0,0,0,0,0,0],"trees":[{"base_weights":[-1.7695376E-1,6.169184E-1,-5.500158E-1,-5.713852E-1,1.1405631E0,-9.063926E-1,-1.9131885E-1,1.4286499E0,1.7384537E-1,1.0747793E0,2.1457238E0,-5.870635E-1,4.9632996E-2,6.392272E-1,-7.749439E-1,1.943193E0,8.613089E-1,3.000137E-1,-2.703802E-1,7.643466E-1,2.750741E0,1.4264715E-1,1.1028749E0,-8.0851454E-1,1.1157259E-2,-6.3270086E-1,1.5990751E0,-2.6238617E-1,-8.896691E-1,-4.2343944E-1,5.55723E-1,8.354306E-1,-9.460123E-1,2.056493E-3,2.2576995E-1,6.10295E-1,-1.1730576E-1,-9.205967E-1,1.1803967E0,3.1219116E-1,2.2188125E0,2.398197E0,-6.4233206E-2,2.5990984E0,1.7635072E0,3.9317027E-2,1.0690404E0,-8.479365E-1,-1.5556899E-1,-2.6198918E-1,1.8061252E0,-9.384311E-1,4.3934697E-1,5.5580556E-1,-8.277259E-1,7.6729006E-1,-2.6506405E-2,1.2842902E0,-2.495314E-1,9.273931E-1,2.8001454E0,1.556294E0,1.2794448E-3,-6.385273E-1,1.0427629E-1,1.3930966E-1,8.079322E-1,2.675469E-1,-4.0229413E-1,7.1285456E-1,3.3989694E-2,1.1083975E-1,4.2859173E-1,4.9180195E-1,-7.2231404E-2,-3.1259257E-1,4.5329988E-1,-2.9619646E-1,-1.0397604E0,-7.49185E-1,1.5886512E0,3.4253716E-1,1.5291696E0,1.6181184E0,3.4119003E0,1.800438E0,1.0122893E-1,1.6661721E-1,4.7140884E-1,2.7150786E-1,6.095347E-1,1.829679E0,6.196758E-1,2.9494922E0,1.7895344E-1,-1.435763E-1,4.5329988E-1,2.7738547E-1,-2.7139723E-1,2.5710233E-2,6.10295E-1,-2.8187272E-3,4.5329988E-1,7.059382E-2,5.015243E-1,-4.5495745E-2,4.3018818E-1,-7.653252E-1,-1.0369818E0,3.104624E-1,-8.0892396E-1,5.5950403E-1,-3.839093E-1,7.5239015E-1,4.9440098E-1,4.9180195E-1,-3.924909E-1,-8.691411E-1,3.1219116E-1,-2.541189E-1,3.6467966E-1,1.3203943E-1,-2.672308E-1,2.0570602E0,-2.6506405E-2,2.8253424E-1,-2.672308E-1,-8.43391E-1,2.3539582E-1,-1.8504085E-1,7.0106965E-1,-8.237528E-1,1.3382222E-1,-7.250588E-1,2.8253424E-1,5.84689E-1,-3.2904062E-1,-9.9525535E-1,2.8214115E-1,-1.9297288E-1,1.7691798E0,-2.541189E-1,1.2372683E0,1.9985001E0,-2.3577408E-1,1.3203943E-1,-2.2470807E-1,2.130028E-2,6.50457E-1,4.3018818E-1,-6.4233206E-2,-9.242085E-2,2.21037E-1,6.10295E-1,2.130028E-2,-2.7139723E-1,3.3387545E-2,1.3627036E-1,7.0106965E-1,-2.819103E-1,-4.413817E-2,4.5329988E-1,6.9027774E-2,-4.9978802E-1,-1.0649209E0,-1.1459987E0,-8.351864E-1,-6.93905E-1,2.0070153E-1,-2.2620356E-1,4.478891E-2,-2.0171356E-1,-8.999692E-2,7.0106965E-1,1.7895344E-1,-6.3527936E-1,2.3391253E-1,3.0457082E-1,-1.4239856E-2,2.0973723E0,1.0517617E0,5.93089E-1,8.790112E-2,2.130028E-2,5.856756E-1,-1.0678942E0,7.326656E-2,-2.4524398E-1,7.326656E-2,-1.280401E-1,-2.3183501E-1,1.6723768E-1,-2.3577408E-1,6.814229E-1,2.6388156E-1,2.130028E-2,-1.167034E0,-9.923205E-1,-5.612139E-1,-1.5379724E-1,-1.051541E0,-8.623161E-1,3.7615448E-1,1.5906172E-1,-2.3577408E-1,-1.2491894E0,-7.3225814E-1,3.1139659E-2,-8.705909E-1,-2.4363448E-1,1.6723768E-1,7.326656E-2,-2.7647036E-1,2.130028E-2,4.9180195E-1,-2.8018042E-1,-5.351335E-1,3.1139659E-2,-8.01694E-1,-7.094662E-1,2.9630476E-1,-2.781291E-1,-2.1174917E-1,1.3930966E-1,-1.7748672E-1,-4.7142968E-1,-1.0099947E0,-1.768466E-1,2.311145E-1,-7.747865E-2,-2.3131078E-1,-2.2676449E-1,-1.09509856E-1,-3.2383863E-2,-2.8258067E-1,-7.655083E-2,-2.4794286E-1,-2.6059923E-1,-1.498506E-1,-1.892717E-1,-0E0,-2.3577408E-1,-0E0,-2.6506405E-2,-2.883247E-1,-2.6848796E-1,-1.5854877E-1,9.2428523E-1,4.9180195E-1,-2.672308E-1,-2.6506405E-2,-9.25363E-2,-2.8349933E-1,-2.6506405E-2,-2.541189E-1,-2.6506405E-2,-2.3577408E-1],"categories":[],"categories_nodes":[],"categories_segments":[],"categories_sizes":[],"default_left":[0,0,0,0,0,0,0,0,0,0,0,0,0,0,0,0,0,0,0,0,0,0,0,0,0,0,0,0,0,0,0,0,0,0,0,0,0,0,0,0,0,0,0,0,0,0,0,0,0,0,0,0,0,0,0,0,0,0,0,0,0,0,0,0,0,0,0,0,0,0,0,0,0,0,0,0,0,0,0,0,0,0,0,0,0,0,0,0,0,0,0,0,0,0,0,0,0,0,0,0,0,0,0,0,0,0,0,0,0,0,0,0,0,0,0,0,0,0,0,0,0,0,0,0,0,0,0,0,0,0,0,0,0,0,0,0,0,0,0,0,0,0,0,0,0,0,0,0,0,0,0,0,0,0,0,0,0,0,0,0,0,0,0,0,0,0,0,0,0,0,0,0,0,0,0,0,0,0,0,0,0,0,0,0,0,0,0,0,0,0,0,0,0,0,0,0,0,0,0,0,0,0,0,0,0,0,0,0,0,0,0,0,0,0,0,0,0,0,0,0,0,0,0,0,0,0,0,0,0,0,0,0,0,0,0,0,0,0,0,0,0,0,0,0,0,0,0,0,0,0,0,0,0,0,0,0,0],"id":0,"left_children":[1,3,5,23,7,37,11,9,13,15,43,25,17,45,215,39,19,21,29,31,65,67,57,117,35,27,153,63,77,47,61,33,249,-1,-1,-1,135,51,213,115,41,89,-1,59,83,95,81,225,49,73,55,107,53,-1,253,-1,-1,91,-1,149,93,123,75,133,97,-1,-1,69,131,71,101,-1,-1,-1,-1,155,-1,79,185,159,157,105,179,85,247,87,191,-1,-1,-1,-1,103,161,113,-1,175,-1,99,-1,-1,-1,-1,-1,-1,-1,121,-1,109,163,111,127,-1,125,-1,-1,-1,241,197,119,-1,-1,-1,-1,193,-1,-1,-1,171,129,-1,-1,235,151,231,-1,141,137,195,139,145,173,-1,143,147,-1,-1,-1,-1,-1,-1,-1,-1,-1,-1,-1,-1,-1,-1,-1,-1,-1,-1,-1,167,165,237,189,169,-1,-1,-1,-1,-1,-1,-1,239,177,-1,-1,183,181,-1,-1,-1,-1,187,-1,-1,-1,-1,-1,-1,-1,-1,-1,-1,251,205,199,201,233,211,203,-1,-1,243,207,209,229,-1,-1,-1,-1,-1,-1,-1,217,219,221,255,-1,-1,223,-1,-1,227,245,-1,-1,-1,-1,-1,-1,-1,-1,-1,-1,-1,-1,-1,-1,-1,-1,-1,-1,-1,-1,-1,-1,-1,-1,-1,-1,-1,-1,-1,-1],"loss_changes":[3.1305743E2,2.1029877E2,9.167137E1,1.4457554E1,6.490958E1,1.0618652E1,3.4362587E1,4.495984E1,2.3837667E1,2.1716156E1,9.146545E0,1.3339905E1,1.7848562E1,9.110923E0,1.5511894E0,9.970497E0,1.6932732E1,1.5514977E1,1.2266195E1,1.1258846E1,7.3839836E0,7.11874E0,8.208036E0,5.14867E0,1.0995376E1,1.2407906E1,3.7993207E0,7.743553E0,6.6362724E0,9.100495E0,7.880642E0,1.2604202E1,3.902409E-1,0E0,0E0,0E0,4.1101036E0,8.818146E0,1.9583743E0,5.2070365E0,9.5881195E0,6.292877E0,0E0,8.047592E0,6.47744E0,6.120417E0,6.525242E0,1.5326138E0,1.0215233E1,6.788513E0,8.663721E0,5.5621033E0,1.1970634E1,0E0,2.5625992E-1,0E0,0E0,6.1913986E0,0E0,4.09161E0,6.133377E0,4.8340693E0,6.6715484E0,4.398052E0,6.046364E0,0E0,0E0,8.738534E0,4.5207505E0,6.9917583E0,5.797941E0,0E0,0E0,0E0,0E0,3.7598262E0,0E0,1.3600739E1,2.5888596E0,3.3351765E0,3.6000152E0,5.6227612E0,2.5990238E0,7.814705E0,5.134487E-1,7.928749E0,2.4481473E0,0E0,0E0,0E0,0E0,5.6798706E0,3.2032607E0,5.303726E0,0E0,2.7131863E0,0E0,9.029736E0,0E0,0E0,0E0,0E0,0E0,0E0,0E0,4.973228E0,0E0,6.1949463E0,2.9585266E0,7.866953E0,4.640312E0,0E0,4.7413797E0,0E0,0E0,0E0,8.0451536E-1,2.2507248E0,6.9320183E0,0E0,0E0,0E0,0E0,2.4443893E0,0E0,0E0,0E0,2.794342E0,1.212754E1,0E0,0E0,1.1343646E0,3.978926E0,1.4090357E0,0E0,7.021716E0,9.09429E0,2.2796755E0,8.32947E0,5.429727E0,2.7362738E0,0E0,8.31889E0,5.383504E0,0E0,0E0,0E0,0E0,0E0,0E0,0E0,0E0,0E0,0E0,0E0,0E0,0E0,0E0,0E0,0E0,0E0,0E0,0E0,3.083818E0,3.4457092E0,9.864807E-1,2.5647469E0,3.1457095E0,0E0,0E0,0E0,0E0,0E0,0E0,0E0,9.8599243E-1,2.9086144E0,0E0,0E0,5.057625E0,6.704648E0,0E0,0E0,0E0,0E0,2.689148E0,0E0,0E0,0E0,0E0,0E0,0E0,0E0,0E0,0E0,0E0,2.771778E-1,2.7833138E0,3.805871E0,4.4685116E0,1.3789434E0,2.5367134E0,2.9838276E0,0E0,0E0,7.483711E-1,2.867857E0,2.7711136E0,1.4888535E0,0E0,0E0,0E0,0E0,0E0,0E0,0E0,2.0272398E0,3.5729034E0,1.8472404E0,1.2847292E-1,0E0,0E0,1.9476416E0,0E0,0E0,4.729847E0,7.355633E-1,0E0,0E0,0E0,0E0,0E0,0E0,0E0,0E0,0E0,0E0,0E0,0E0,0E0,0E0,0E0,0E0,0E0,0E0,0E0,0E0,0E0,0E0,0E0,0E0,0E0,0E0,0E0,0E0,0E0,0E0],"parents":[2147483647,0,0,1,1,2,2,4,4,7,7,6,6,8,8,9,9,12,12,16,16,17,17,3,3,11,11,25,25,18,18,19,19,31,31,24,24,5,5,15,15,40,40,10,10,13,13,29,29,48,48,37,37,52,52,50,50,22,22,43,43,30,30,27,27,20,20,21,21,67,67,69,69,49,49,62,62,28,28,77,77,46,46,44,44,83,83,85,85,41,41,57,57,60,60,45,45,64,64,97,97,70,70,91,91,81,81,51,51,107,107,109,109,93,93,39,39,23,23,118,118,105,105,61,61,112,112,110,110,128,128,68,68,63,63,36,36,136,136,138,138,135,135,142,142,139,139,143,143,59,59,132,132,26,26,75,75,80,80,79,79,92,92,108,108,164,164,163,163,167,167,127,127,140,140,95,95,176,176,82,82,180,180,179,179,78,78,185,185,166,166,86,86,123,123,137,137,117,117,198,198,199,199,202,202,197,197,206,206,207,207,201,201,38,38,14,14,216,216,217,217,218,218,222,222,47,47,225,225,208,208,133,133,200,200,131,131,165,165,175,175,116,116,205,205,226,226,84,84,32,32,196,196,54,54,219,219],"right_children":[2,4,6,24,8,38,12,10,14,16,44,26,18,46,216,40,20,22,30,32,66,68,58,118,36,28,154,64,78,48,62,34,250,-1,-1,-1,136,52,214,116,42,90,-1,60,84,96,82,226,50,74,56,108,54,-1,254,-1,-1,92,-1,150,94,124,76,134,98,-1,-1,70,132,72,102,-1,-1,-1,-1,156,-1,80,186,160,158,106,180,86,248,88,192,-1,-1,-1,-1,104,162,114,-1,176,-1,100,-1,-1,-1,-1,-1,-1,-1,122,-1,110,164,112,128,-1,126,-1,-1,-1,242,198,120,-1,-1,-1,-1,194,-1,-1,-1,172,130,-1,-1,236,152,232,-1,142,138,196,140,146,174,-1,144,148,-1,-1,-1,-1,-1,-1,-1,-1,-1,-1,-1,-1,-1,-1,-1,-1,-1,-1,-1,168,166,238,190,170,-1,-1,-1,-1,-1,-1,-1,240,178,-1,-1,184,182,-1,-1,-1,-1,188,-1,-1,-1,-1,-1,-1,-1,-1,-1,-1,252,206,200,202,234,212,204,-1,-1,244,208,210,230,-1,-1,-1,-1,-1,-1,-1,218,220,222,256,-1,-1,224,-1,-1,228,246,-1,-1,-1,-1,-1,-1,-1,-1,-1,-1,-1,-1,-1,-1,-1,-1,-1,-1,-1,-1,-1,-1,-1,-1,-1,-1,-1,-1,-1,-1],"split_conditions":[8.8E1,9.193846E-1,9.8351E-1,8.3388704E-1,4.3E1,1E0,4.9E1,1.0883088E0,1E0,2.2E1,7.2E1,2.3790322E-1,1E0,1.0253521E0,5E1,9.748765E-1,2.55E4,1.3846155E-1,6.3E1,4.0705884E-1,1E0,1.1363637E-1,1.188E3,1.7988E4,2.7E1,1E0,6E1,4.327083E0,2.48E2,1.0081735E0,1E0,6.1104147E-6,2.245E4,2.056493E-3,2.2576995E-1,6.10295E-1,9.5E3,7.9E1,8.493976E-1,9.3392855E-1,6.2E1,8.691E3,-6.4233206E-2,7.5E-2,2.5972E4,1.969E4,4.6568527E0,3.4E2,2.5154E4,2.8E1,1.7E1,1E0,1E0,5.5580556E-1,1.7E1,7.6729006E-1,-2.6506405E-2,1.6611296E-1,-2.495314E-1,1.0226794E-5,1.1542127E0,7.7E1,1.999E4,1E0,1.8923077E-1,1.3930966E-1,8.079322E-1,6E0,9E0,4.9E0,7.4E1,1.1083975E-1,4.2859173E-1,4.9180195E-1,-7.2231404E-2,5.696552E-1,4.5329988E-1,1.0865138E0,8.1E1,3.7E1,1.04705885E-1,5.2E1,9.829306E-6,7.6E1,1.1004982E0,1.1004982E0,1.4E4,1.6661721E-1,4.7140884E-1,2.7150786E-1,6.095347E-1,1.23E2,1.3E2,3.5384212E0,1.7895344E-1,5E1,4.5329988E-1,1.14E1,-2.7139723E-1,2.5710233E-2,6.10295E-1,-2.8187272E-3,4.5329988E-1,7.059382E-2,5.015243E-1,3.624091E0,4.3018818E-1,9.9E1,1.6048889E0,3.7E1,1.14E1,5.5950403E-1,8.828164E-6,7.5239015E-1,4.9440098E-1,4.9180195E-1,1.1931034E-1,1.1931034E-1,6.364827E-6,-2.541189E-1,3.6467966E-1,1.3203943E-1,-2.672308E-1,1.0081735E0,-2.6506405E-2,2.8253424E-1,-2.672308E-1,9.2186093E-1,8.5569036E-1,-1.8504085E-1,7.0106965E-1,1.3E4,1.304E-1,7.0357144E-2,2.8253424E-1,6.8E3,1.09E-1,5.2380953E-2,7.2E1,8.691956E-1,2.8E1,-2.541189E-1,1.1666667E-1,3E1,-2.3577408E-1,1.3203943E-1,-2.2470807E-1,2.130028E-2,6.50457E-1,4.3018818E-1,-6.4233206E-2,-9.242085E-2,2.21037E-1,6.10295E-1,2.130028E-2,-2.7139723E-1,3.3387545E-2,1.3627036E-1,7.0106965E-1,-2.819103E-1,-4.413817E-2,4.5329988E-1,6.9027774E-2,9.694854E-6,8.6206895E-1,2E4,7.5E-1,7.2E1,2.0070153E-1,-2.2620356E-1,4.478891E-2,-2.0171356E-1,-8.999692E-2,7.0106965E-1,1.7895344E-1,7.2E1,3.7091734E0,3.0457082E-1,-1.4239856E-2,4.9E1,8.527E3,5.93089E-1,8.790112E-2,2.130028E-2,5.856756E-1,2.1377E4,7.326656E-2,-2.4524398E-1,7.326656E-2,-1.280401E-1,-2.3183501E-1,1.6723768E-1,-2.3577408E-1,6.814229E-1,2.6388156E-1,2.130028E-2,8.4585744E-1,1.1627962E-5,2.0833333E-1,3.7E1,2.2838094E0,2.8E3,4E1,1.5906172E-1,-2.3577408E-1,3.4881432E-6,5.451128E-2,2.152E3,2.7E1,-2.4363448E-1,1.6723768E-1,7.326656E-2,-2.7647036E-1,2.130028E-2,4.9180195E-1,-2.8018042E-1,4.1766667E0,7.2E1,7.5406895E0,1E4,2.9630476E-1,-2.781291E-1,1.5E-1,1.3930966E-1,-1.7748672E-1,1.68E4,1.563077E0,-1.768466E-1,2.311145E-1,-7.747865E-2,-2.3131078E-1,-2.2676449E-1,-1.09509856E-1,-3.2383863E-2,-2.8258067E-1,-7.655083E-2,-2.4794286E-1,-2.6059923E-1,-1.498506E-1,-1.892717E-1,-0E0,-2.3577408E-1,-0E0,-2.6506405E-2,-2.883247E-1,-2.6848796E-1,-1.5854877E-1,9.2428523E-1,4.9180195E-1,-2.672308E-1,-2.6506405E-2,-9.25363E-2,-2.8349933E-1,-2.6506405E-2,-2.541189E-1,-2.6506405E-2,-2.3577408E-1],"split_indices":[12,11,11,11,1,7,5,11,9,1,5,6,9,11,1,11,2,6,1,13,11,6,12,3,5,8,1,14,12,11,8,10,2,0,0,0,2,1,11,11,12,3,0,6,3,2,14,12,3,1,0,8,8,0,0,0,0,6,0,10,11,1,2,7,6,0,0,0,0,14,1,0,0,0,0,13,0,11,1,5,6,1,10,12,11,11,2,0,0,0,0,12,12,14,0,1,0,14,0,0,0,0,0,0,0,14,0,12,14,5,14,0,10,0,0,0,13,13,10,0,0,0,0,11,0,0,0,11,11,0,0,2,6,6,0,2,6,6,5,11,1,0,13,1,0,0,0,0,0,0,0,0,0,0,0,0,0,0,0,0,0,0,0,10,11,3,13,5,0,0,0,0,0,0,0,5,14,0,0,5,3,0,0,0,0,2,0,0,0,0,0,0,0,0,0,0,11,10,13,5,14,3,1,0,0,10,6,3,1,0,0,0,0,0,0,0,14,5,14,2,0,0,6,0,0,2,13,0,0,0,0,0,0,0,0,0,0,0,0,0,0,0,0,0,0,0,0,0,0,0,0,0,0,0,0,0,0],"split_type":[0,0,0,0,0,0,0,0,0,0,0,0,0,0,0,0,0,0,0,0,0,0,0,0,0,0,0,0,0,0,0,0,0,0,0,0,0,0,0,0,0,0,0,0,0,0,0,0,0,0,0,0,0,0,0,0,0,0,0,0,0,0,0,0,0,0,0,0,0,0,0,0,0,0,0,0,0,0,0,0,0,0,0,0,0,0,0,0,0,0,0,0,0,0,0,0,0,0,0,0,0,0,0,0,0,0,0,0,0,0,0,0,0,0,0,0,0,0,0,0,0,0,0,0,0,0,0,0,0,0,0,0,0,0,0,0,0,0,0,0,0,0,0,0,0,0,0,0,0,0,0,0,0,0,0,0,0,0,0,0,0,0,0,0,0,0,0,0,0,0,0,0,0,0,0,0,0,0,0,0,0,0,0,0,0,0,0,0,0,0,0,0,0,0,0,0,0,0,0,0,0,0,0,0,0,0,0,0,0,0,0,0,0,0,0,0,0,0,0,0,0,0,0,0,0,0,0,0,0,0,0,0,0,0,0,0,0,0,0,0,0,0,0,0,0,0,0,0,0,0,0,0,0,0,0,0,0],"sum_hessian":[1.0570989E3,3.3772388E2,7.1937494E2,1.0314894E2,2.3457492E2,3.6048776E2,3.5888718E2,1.8051065E2,5.4064274E1,1.21111084E2,5.9399563E1,1.3622774E2,2.2265944E2,3.6457817E1,1.7606457E1,2.365312E1,9.745797E1,1.2537932E2,9.728012E1,9.2834045E1,4.623918E0,1.0510522E2,2.0274103E1,7.362701E1,2.9521938E1,1.3356009E2,2.667645E0,5.5131332E1,7.8428764E1,8.234131E1,1.4938812E1,8.927719E1,3.55686E0,1.5828028E1,7.344916E1,1.422744E0,2.8099195E1,3.581758E2,2.311959E0,3.55686E0,2.009626E1,1.8851358E1,1.2449011E0,2.6854294E1,3.254527E1,1.5472342E1,2.0985474E1,3.1478212E1,5.08631E1,4.83733E1,2.4898021E0,3.5372974E2,4.446075E0,1.77843E0,2.667645E0,1.422744E0,1.0670581E0,1.8851358E1,1.422744E0,3.0233312E0,2.3830963E1,5.1574473E0,9.781365E0,2.7565666E1,2.7565666E1,1.422744E0,3.201174E0,8.589817E1,1.9207045E1,2.9166252E1,5.673192E1,2.489802E1,4.2682323E0,1.0670581E0,4.730624E1,8.358622E0,1.422744E0,1.6183714E1,6.2245052E1,1.3160382E1,3.0233312E0,8.358622E0,1.2626853E1,3.0055468E1,2.4898021E0,2.667645E1,3.379017E0,6.224505E0,2.0451946E1,4.2682323E0,1.4583126E1,1.0137052E1,8.714307E0,2.2052532E1,1.77843E0,1.4049598E1,1.422744E0,2.4542336E1,3.0233312E0,2.311959E1,1.422744E0,5.5309174E1,1.422744E0,2.311959E0,7.8250923E0,6.580191E0,1.77843E0,1.2929187E2,2.2443787E2,4.801761E0,1.24490105E2,1.2449011E0,3.55686E0,1.3871755E1,8.1807785E0,1.0670581E0,2.4898021E0,7.0070145E1,3.55686E0,1.600587E0,1.9562731E0,4.0903893E0,2.4898021E0,4.0903893E0,1.0670581E0,1.0670581E0,2.4898021E0,1.207554E2,3.734703E0,2.667645E0,1.0670581E0,1.1026266E1,8.1807785E0,2.6498608E1,1.0670581E0,6.224505E0,2.187469E1,1.067058E1,1.1204109E1,8.358622E0,2.845488E0,1.600587E0,4.623918E0,3.55686E0,1.0670581E0,4.0903893E0,4.2682323E0,1.2449011E0,2.311959E0,1.77843E0,1.2449011E0,4.801761E0,3.379017E0,1.422744E0,1.2449011E0,3.0233312E0,5.33529E0,1.9562731E0,1.0670581E0,6.580191E0,6.580191E0,1.422744E0,7.291563E0,1.1559795E1,2.1287808E2,1.5650185E2,5.6376232E1,1.0314895E1,1.2449011E0,7.8250923E0,2.4898021E0,1.0599443E2,1.4760969E1,1.0670581E0,1.77843E0,6.402348E0,7.647249E0,1.77843E0,5.868819E0,5.513133E0,7.11372E0,1.9562731E0,5.1574473E0,1.2449011E0,4.2682323E0,6.1177994E1,1.0670581E0,6.0110935E1,1.0670581E0,2.5075863E1,3.130037E1,2.311959E0,1.0670581E0,1.77843E0,2.311959E0,1.2449011E0,9.425679E0,4.9440353E1,2.062979E1,1.1559795E1,9.069993E0,5.1574473E0,6.402348E0,5.33529E0,1.0670581E0,2.4364492E1,2.5075863E1,3.55686E0,2.1519003E1,1.2449011E0,2.311959E0,1.0670581E0,4.0903893E0,1.2449011E0,1.0670581E0,5.513133E0,1.2093325E1,3.55686E0,8.536465E0,2.1341162E0,1.422744E0,4.623918E0,3.9125462E0,1.422744E0,2.4898021E0,9.9592085E0,2.1519003E1,8.358622E0,1.600587E0,5.513133E0,1.600587E1,1.1381952E1,1.5116655E1,1.9562731E0,7.11372E0,4.446075E0,6.580191E0,1.497438E2,6.758034E0,4.9796042E0,1.422744E0,1.0670581E0,1.422744E0,1.0670581E0,2.3297434E1,1.2626853E1,8.89215E0,1.422744E0,1.0670581E0,2.4898021E0,1.0670581E0,1.422744E0,8.002935E0,1.0670581E0,1.600587E0,1.0670581E0,1.0670581E0],"tree_param":{"num_deleted":"0","num_feature":"15","num_nodes":"257","size_leaf_vector":"1"}},{"base_weights":[-1.5943716E-1,-7.521883E-1,1.7706546E-1,7.600828E-1,-2.125017E-1,1.254237E0,5.334123E-1,-3.6098963E-1,1.9277683E-1,4.636212E-1,2.3316426E0,6.227672E-1,-2.930297E-1,4.5238513E-1,1.315949E0,-5.562187E-1,-7.146286E-2,-6.258618E-1,9.69635E-1,7.062879E-1,1.5772214E0,-1.4289802E-1,1.3450671E0,5.1214415E-1,-3.1474957E-1,-5.8868057E-1,-9.427833E-1,-3.1709328E-1,-8.0146486E-1,-3.3434126E-1,-8.48159E-1,2.1596545E-1,8.379095E-1,-5.1579374E-1,2.2719213E-1,-1.2740704E-1,1.0521911E0,7.6513296E-1,-5.820278E-1,6.267693E-2,8.7020254E-1,2.6765487E0,9.279385E-3,-5.3954846E-1,8.801739E-1,7.925873E-2,-1.5142094E-1,2.0062115E0,1.140705E0,1.2902627E0,-5.903829E-1,1.3305906E0,-5.3185946E-1,-4.069502E-1,6.940047E-1,5.083824E-1,-7.393105E-2,5.4445002E-2,3.6540058E-1,1.4876302E0,-2.0076013E-1,-1.00714765E-1,4.042649E-1,4.5514736E-1,2.0279254E-1,1.6687242E0,2.8276116E-1,-8.35399E-1,8.62821E-1,1.2731543E0,-2.6056615E-1,3.7114123E-1,-1.4933659E-1,-2.3541428E-1,1.573178E0,5.6974296E-3,1.8352917E0,7.234056E-1,-0E0,-4.9244648E-1,1.5240021E-1,4.509864E-1,8.366033E-2,1.0906662E0,5.495004E-1,-5.1155027E-2,2.9494417E-1,2.9337755E-1,5.651292E-1,-5.466922E-1,9.9661075E-2,3.3162063E-1,-9.840855E-2,-7.1064305E-1,2.3567967E-1,1.430192E0,-9.135509E-2,1.1440917E0,-2.5701493E-1,2.11373E0,-9.068849E-2,-2.6856047E-1,-6.9011825E-1,-9.571924E-1,2.1199565E-1,1.6282082E-1,4.383274E-1,3.6300674E-1,2.233744E0,2.2189195E-1,4.6511677E-1,2.4331602E-1,-2.6107198E-1,-1.293216E-1,8.236805E-2,1.3785262E-1,-7.7869326E-2,-5.788411E-1,4.4560164E-1,-1.4027728E-1,3.9115834E-1,-8.3761466E-1,-2.9953182E-1,-8.72354E-1,2.3354026E-2,5.858282E-1,-7.363278E-2,8.505971E-2,6.001309E-1,-1.0751082E-1,2.2224197E-1,-1.6218546E-1,2.3338854E-1,4.5451794E-2,-2.5377524E-1,6.449157E-1,3.3400122E-2,-2.431905E-1,8.738285E-1,7.325824E-1,1.290425E0,5.600656E-1,-3.2523558E-2,-5.1834655E-1,4.674709E-1,3.4243426E-1,3.404681E-2,2.4758403E-1,-2.6494834E-1,-3.139826E-2,4.746843E-1,-1.9892453E-1,-0E0,-1.5789475E-1,1.9665811E-2,-2.5040567E-1,-9.8223615E-1,6.7995363E-1,-2.6320168E-1,-1.0905926E0,-7.994019E-1,-0E0,-8.654192E-1,-5.4006964E-1,-1.0321335E0,-1.4732175E-1,2.9299542E-1,5.016157E-1,-6.06574E-1,3.4454343E-1,-4.9223732E-2,1.675246E-1,-2.5863534E-1,-1.663607E-1,3.571985E-1,-7.2048527E-1,7.089747E-1,4.386675E-1,-5.2966576E-2,-9.1506696E-1,-5.382298E-1,-8.4719616E-1,3.430777E-1,5.211926E-1,-1.1289311E-2,-1.3923542E-1,-1.077786E0,2.0947075E-1,-1.357102E-1,2.5486857E-1,7.901037E-1,-9.4855464E-1,-1.1162898E-1,-7.717829E-1,2.828494E-1,-2.6219323E-1,-0E0,7.244613E-2,-2.3549493E-1,-2.4067773E-1,-0E0,1.5328697E0,2.9106832E0,5.1956004E-1,1.9506738E-2,-1.048098E0,1.9065358E-2,-2.7836515E-2,2.9390216E-1,-2.8465477E-1,6.7623235E-2,7.312854E-1,2.524118E-1,-5.8834355E-2,-9.756493E-1,-2.3449516E-1,1.4351428E-1,-2.2266571E-1,-0E0,1.1322713E-1,4.1497084E-1,-4.6879753E-1,-1.0091894E0,-1.770703E-1,4.0913582E-1,-2.4398297E-1,-0E0,-2.2804977E-1,-0E0,1.7943885E0,2.4976006E0,2.0171096E0,7.5867754E-1,4.824352E-1,-0E0,3.3646244E-1,5.595172E-1,-2.8552616E-1,1.1335036E-2,2.7981588E-1,-5.479814E-2,6.071514E-1,2.2613741E-1,-1.1439589E0,-7.8413856E-1,-1.0468639E0,-2.3910727E-2,-1.6858728E-1,2.1018572E-1,-2.720065E-1,-4.0911645E-2,-9.728992E-2,1.6097495E-1,4.4888923E-1,7.908086E-1,-1.3887058E-1,5.0862476E-2,-2.5597247E-1,-1.9831266E-2,-4.150451E-2,-2.9201582E-1,-2.0644322E-2,-2.4101375E-1,2.8631353E-1,5.247725E-2,-2.3953506E-1,-2.5099471E-2,-1.0382936E0,-2.7105787E-1,-1.3951145E-1,-2.514779E-1],"categories":[],"categories_nodes":[],"categories_segments":[],"categories_sizes":[],"default_left":[0,0,0,0,0,0,0,0,0,0,0,0,0,0,0,0,0,0,0,0,0,0,0,0,0,0,0,0,0,0,0,0,0,0,0,0,0,0,0,0,0,0,0,0,0,0,0,0,0,0,0,0,0,0,0,0,0,0,0,0,0,0,0,0,0,0,0,0,0,0,0,0,0,0,0,0,0,0,0,0,0,0,0,0,0,0,0,0,0,0,0,0,0,0,0,0,0,0,0,0,0,0,0,0,0,0,0,0,0,0,0,0,0,0,0,0,0,0,0,0,0,0,0,0,0,0,0,0,0,0,0,0,0,0,0,0,0,0,0,0,0,0,0,0,0,0,0,0,0,0,0,0,0,0,0,0,0,0,0,0,0,0,0,0,0,0,0,0,0,0,0,0,0,0,0,0,0,0,0,0,0,0,0,0,0,0,0,0,0,0,0,0,0,0,0,0,0,0,0,0,0,0,0,0,0,0,0,0,0,0,0,0,0,0,0,0,0,0,0,0,0,0,0,0,0,0,0,0,0,0,0,0,0,0,0,0,0,0,0,0,0,0,0,0,0,0,0,0,0,0,0,0,0,0,0,0,0,0,0,0,0,0,0,0,0,0,0,0,0,0,0],"id":1,"left_children":[1,25,3,5,7,19,9,15,39,11,201,13,37,31,59,17,21,29,75,35,47,23,41,43,53,27,103,33,67,79,101,45,105,117,81,167,49,69,93,71,65,189,251,195,57,-1,-1,229,51,95,237,83,209,61,55,-1,-1,-1,-1,63,255,-1,-1,-1,-1,107,97,179,263,219,-1,87,73,89,135,137,77,-1,-1,113,115,-1,111,85,-1,-1,-1,125,-1,153,91,-1,-1,151,-1,109,-1,99,171,211,-1,-1,131,155,-1,-1,-1,239,139,-1,-1,143,-1,-1,-1,-1,-1,121,119,-1,-1,221,123,227,133,127,129,-1,-1,-1,-1,-1,-1,-1,-1,-1,-1,-1,149,-1,141,-1,-1,147,145,-1,-1,-1,-1,-1,-1,-1,-1,-1,-1,157,159,207,-1,243,161,175,163,165,199,-1,-1,169,205,-1,-1,173,-1,-1,-1,265,177,-1,-1,191,181,185,183,-1,197,187,257,-1,-1,-1,-1,213,193,261,-1,-1,-1,-1,-1,-1,-1,203,253,-1,-1,259,-1,-1,-1,-1,-1,-1,-1,215,217,-1,-1,-1,-1,-1,-1,223,225,-1,-1,-1,-1,-1,-1,231,241,235,233,-1,-1,-1,-1,-1,-1,-1,-1,-1,-1,267,245,249,247,-1,-1,-1,-1,-1,-1,-1,-1,-1,-1,-1,-1,-1,-1,-1,-1,-1,-1,-1,-1,269,-1,-1,-1],"loss_changes":[2.0552385E2,1.1226929E1,1.4925085E2,2.901596E1,2.3710829E1,1.3986343E1,2.1960339E1,1.613121E1,9.008188E0,2.1063957E1,1.891819E0,1.6569675E1,9.123285E0,1.0303221E1,7.66724E0,1.8150875E1,1.1489258E1,1.033886E1,5.633837E0,9.142792E0,8.8268585E0,1.2469037E1,8.944969E0,8.914335E0,8.149519E0,1.1356323E1,4.6780853E0,9.711405E0,6.346428E0,5.599268E0,4.6792374E0,8.874467E0,4.671503E0,4.0127087E0,5.4822526E0,2.6892495E0,8.801163E0,6.149906E0,4.909194E0,5.8388724E0,7.2707186E0,2.2231503E0,9.617581E-1,2.0180955E0,7.7077208E0,0E0,0E0,1.5462036E0,8.421215E0,4.8765144E0,1.4883524E0,5.387169E0,1.7988305E0,7.488529E0,1.2115553E1,0E0,0E0,0E0,0E0,7.3266945E0,5.9088165E-1,0E0,0E0,0E0,0E0,4.36771E0,4.7646027E0,2.232727E0,1.528759E-1,1.6372213E0,0E0,5.384378E0,7.3434424E0,5.2863207E0,3.5474548E0,3.3739495E0,9.835413E0,0E0,0E0,4.0883694E0,4.057292E0,0E0,4.12831E0,6.1558495E0,0E0,0E0,0E0,3.929027E0,0E0,2.8054032E0,1.780245E1,0E0,0E0,2.935687E0,0E0,4.3317986E0,0E0,6.3721924E0,2.47762E0,1.7267838E0,0E0,0E0,3.878046E0,2.6933136E0,0E0,0E0,0E0,1.4569056E0,3.3620796E0,0E0,0E0,3.3302665E0,0E0,0E0,0E0,0E0,0E0,4.1717796E0,5.5902367E0,0E0,0E0,1.6131992E0,5.812886E0,1.6112518E0,3.7262154E0,7.8477163E0,6.513199E0,0E0,0E0,0E0,0E0,0E0,0E0,0E0,0E0,0E0,0E0,0E0,3.2407176E0,0E0,5.097742E0,0E0,0E0,4.562093E0,4.7234674E0,0E0,0E0,0E0,0E0,0E0,0E0,0E0,0E0,0E0,0E0,5.469456E0,2.7576447E0,1.817545E0,0E0,1.1659241E0,3.459568E0,2.287222E0,2.7082825E0,4.2380753E0,1.9313011E0,0E0,0E0,3.0343156E0,1.8553051E0,0E0,0E0,5.113584E0,0E0,0E0,0E0,1.3248336E-1,3.3097076E0,0E0,0E0,2.0460052E0,6.6769586E0,2.622611E0,4.8487425E0,0E0,1.9382868E0,2.2840884E0,5.6227684E-1,0E0,0E0,0E0,0E0,1.7202606E0,3.2982564E0,2.5082493E-1,0E0,0E0,0E0,0E0,0E0,0E0,0E0,2.7689457E0,6.023426E-1,0E0,0E0,3.7413955E-1,0E0,0E0,0E0,0E0,0E0,0E0,0E0,1.9997659E0,1.6745911E0,0E0,0E0,0E0,0E0,0E0,0E0,7.551049E0,1.8781376E0,0E0,0E0,0E0,0E0,0E0,0E0,3.500431E0,1.4107475E0,2.6472816E0,4.0654755E0,0E0,0E0,0E0,0E0,0E0,0E0,0E0,0E0,0E0,0E0,3.4751892E-2,2.8933105E0,1.3288269E0,3.005951E0,0E0,0E0,0E0,0E0,0E0,0E0,0E0,0E0,0E0,0E0,0E0,0E0,0E0,0E0,0E0,0E0,0E0,0E0,0E0,0E0,8.142433E-1,0E0,0E0,0E0],"parents":[2147483647,0,0,2,2,3,3,4,4,6,6,9,9,11,11,7,7,15,15,5,5,16,16,21,21,1,1,25,25,17,17,13,13,27,27,19,19,12,12,8,8,22,22,23,23,31,31,20,20,36,36,48,48,24,24,54,54,44,44,14,14,53,53,59,59,40,40,28,28,37,37,39,39,72,72,18,18,76,76,29,29,34,34,51,51,83,83,71,71,73,73,90,90,38,38,49,49,66,66,97,97,30,30,26,26,32,32,65,65,95,95,82,82,79,79,80,80,33,33,118,118,117,117,122,122,87,87,125,125,126,126,102,102,124,124,74,74,75,75,108,108,140,140,111,111,144,144,143,143,138,138,93,93,89,89,103,103,155,155,156,156,160,160,162,162,163,163,35,35,167,167,98,98,171,171,161,161,176,176,67,67,180,180,182,182,181,181,185,185,41,41,179,179,192,192,43,43,184,184,164,164,10,10,201,201,168,168,157,157,52,52,99,99,191,191,213,213,214,214,69,69,121,121,221,221,222,222,123,123,47,47,229,229,232,232,231,231,50,50,107,107,230,230,159,159,244,244,246,246,245,245,42,42,202,202,60,60,186,186,205,205,193,193,68,68,175,175,243,243,267,267],"right_children":[2,26,4,6,8,20,10,16,40,12,202,14,38,32,60,18,22,30,76,36,48,24,42,44,54,28,104,34,68,80,102,46,106,118,82,168,50,70,94,72,66,190,252,196,58,-1,-1,230,52,96,238,84,210,62,56,-1,-1,-1,-1,64,256,-1,-1,-1,-1,108,98,180,264,220,-1,88,74,90,136,138,78,-1,-1,114,116,-1,112,86,-1,-1,-1,126,-1,154,92,-1,-1,152,-1,110,-1,100,172,212,-1,-1,132,156,-1,-1,-1,240,140,-1,-1,144,-1,-1,-1,-1,-1,122,120,-1,-1,222,124,228,134,128,130,-1,-1,-1,-1,-1,-1,-1,-1,-1,-1,-1,150,-1,142,-1,-1,148,146,-1,-1,-1,-1,-1,-1,-1,-1,-1,-1,158,160,208,-1,244,162,176,164,166,200,-1,-1,170,206,-1,-1,174,-1,-1,-1,266,178,-1,-1,192,182,186,184,-1,198,188,258,-1,-1,-1,-1,214,194,262,-1,-1,-1,-1,-1,-1,-1,204,254,-1,-1,260,-1,-1,-1,-1,-1,-1,-1,216,218,-1,-1,-1,-1,-1,-1,224,226,-1,-1,-1,-1,-1,-1,232,242,236,234,-1,-1,-1,-1,-1,-1,-1,-1,-1,-1,268,246,250,248,-1,-1,-1,-1,-1,-1,-1,-1,-1,-1,-1,-1,-1,-1,-1,-1,-1,-1,-1,-1,270,-1,-1,-1],"split_conditions":[9.193846E-1,1E0,8.8E1,2.5E1,1.0873916E0,1.0044087E0,1E0,1.2457E4,7.0530767E0,1E0,4.9E1,1.849E4,3.3E1,1.0845062E0,3.7235293E-1,1E0,7.4E1,1E0,3.7E1,4.9E1,2.1E1,1.68E2,7.6E1,9.917557E-1,2.5972E4,3.5586208E-1,8.1E1,8.493976E-1,7.9E1,6.2E1,5.99E3,1.5756E4,1.5580794E-5,2.36E4,2.7E1,7.165E3,4.3676715E0,1.7792676E-1,1.7867778E-1,2.48E2,1E0,1.54E0,9.498651E-6,6.8996337E-6,1.28E2,7.925873E-2,-1.5142094E-1,1.4665E4,1.1542127E0,1.5187154E-5,2E0,1.1146209E0,1.0418E4,1.5588572E1,2.7112E4,5.083824E-1,-7.393105E-2,5.4445002E-2,3.6540058E-1,1E0,2.9E1,-1.00714765E-1,4.042649E-1,4.5514736E-1,2.0279254E-1,8.04E0,1.5129E4,8.4233344E-1,8.2E1,7.3856636E-6,-2.6056615E-1,2.2888E4,1E0,1.1240317E0,1.2E1,1.4813109E-5,8.633E3,7.234056E-1,-0E0,2.152174E0,1E0,4.509864E-1,5.7E1,1.14E-1,5.495004E-1,-5.1155027E-2,2.9494417E-1,1.184E4,5.651292E-1,1.431E3,9.266E3,3.3162063E-1,-9.840855E-2,1.1171764E0,2.3567967E-1,2.9578545E0,-9.135509E-2,1.5060509E-5,1.3E1,5.5E1,-9.068849E-2,-2.6856047E-1,8.1E1,2.9856116E-2,2.1199565E-1,1.6282082E-1,4.383274E-1,3.85E2,1.6611296E-1,2.2189195E-1,4.6511677E-1,2.05E0,-2.6107198E-1,-1.293216E-1,8.236805E-2,1.3785262E-1,-7.7869326E-2,1.3054404E-5,7.2398293E-6,-1.4027728E-1,3.9115834E-1,5.2380953E-2,2.7E1,3E0,6.8076925E0,9.985E3,1.3916667E-1,8.505971E-2,6.001309E-1,-1.0751082E-1,2.2224197E-1,-1.6218546E-1,2.3338854E-1,4.5451794E-2,-2.5377524E-1,6.449157E-1,3.3400122E-2,-2.431905E-1,8E0,7.325824E-1,5.7E1,5.600656E-1,-3.2523558E-2,1.3118519E0,2.484706E0,3.4243426E-1,3.404681E-2,2.4758403E-1,-2.6494834E-1,-3.139826E-2,4.746843E-1,-1.9892453E-1,-0E0,-1.5789475E-1,1.9665811E-2,6.440678E-1,7.7116704E-1,1.0116884E0,-2.6320168E-1,7.7818184E0,3.2E1,8.8E1,9.941E3,1.2E4,1.2210526E1,-1.4732175E-1,2.9299542E-1,1E0,1.3973E4,3.4454343E-1,-4.9223732E-2,3.5E2,-2.5863534E-1,-1.663607E-1,3.571985E-1,1.4727272E-1,1E0,4.386675E-1,-5.2966576E-2,8.4E1,6.3E0,5.742857E-1,8.6206895E-1,5.211926E-1,3.104E0,8.6577183E-1,8.4E1,2.0947075E-1,-1.357102E-1,2.5486857E-1,7.901037E-1,1.8366834E0,5.1151514E0,4.7E1,2.828494E-1,-2.6219323E-1,-0E0,7.244613E-2,-2.3549493E-1,-2.4067773E-1,-0E0,2.9E1,6.8117315E-6,5.1956004E-1,1.9506738E-2,1.0751295E-1,1.9065358E-2,-2.7836515E-2,2.9390216E-1,-2.8465477E-1,6.7623235E-2,7.312854E-1,2.524118E-1,1.5442044E0,4.787141E0,-2.3449516E-1,1.4351428E-1,-2.2266571E-1,-0E0,1.1322713E-1,4.1497084E-1,4.98E-2,8.4E1,-1.770703E-1,4.0913582E-1,-2.4398297E-1,-0E0,-2.2804977E-1,-0E0,1.249E4,8.4E1,8.999E3,3.12E0,4.824352E-1,-0E0,3.3646244E-1,5.595172E-1,-2.8552616E-1,1.1335036E-2,2.7981588E-1,-5.479814E-2,6.071514E-1,2.2613741E-1,1.1974E4,4.9E1,1.2533889E1,7E0,-1.6858728E-1,2.1018572E-1,-2.720065E-1,-4.0911645E-2,-9.728992E-2,1.6097495E-1,4.4888923E-1,7.908086E-1,-1.3887058E-1,5.0862476E-2,-2.5597247E-1,-1.9831266E-2,-4.150451E-2,-2.9201582E-1,-2.0644322E-2,-2.4101375E-1,2.8631353E-1,5.247725E-2,-2.3953506E-1,-2.5099471E-2,4.1E1,-2.7105787E-1,-1.3951145E-1,-2.514779E-1],"split_indices":[11,9,12,1,11,11,7,3,14,9,5,3,1,11,13,7,1,8,5,5,12,12,1,11,3,13,1,11,1,1,2,3,10,2,5,2,14,6,13,12,8,13,10,10,12,0,0,2,11,10,0,11,2,14,3,0,0,0,0,8,1,0,0,0,0,14,3,11,1,10,0,2,7,11,0,10,2,0,0,13,9,0,1,13,0,0,0,3,0,12,3,0,0,11,0,14,0,10,0,1,0,0,1,6,0,0,0,12,6,0,0,14,0,0,0,0,0,10,10,0,0,6,5,0,14,2,6,0,0,0,0,0,0,0,0,0,0,0,0,0,1,0,0,14,14,0,0,0,0,0,0,0,0,0,0,11,11,14,0,14,1,12,3,2,14,0,0,0,2,0,0,12,0,0,0,13,8,0,0,5,14,13,11,0,13,11,5,0,0,0,0,14,14,1,0,0,0,0,0,0,0,12,10,0,0,6,0,0,0,0,0,0,0,14,13,0,0,0,0,0,0,6,5,0,0,0,0,0,0,2,5,2,14,0,0,0,0,0,0,0,0,0,0,2,5,14,0,0,0,0,0,0,0,0,0,0,0,0,0,0,0,0,0,0,0,0,0,1,0,0,0],"split_type":[0,0,0,0,0,0,0,0,0,0,0,0,0,0,0,0,0,0,0,0,0,0,0,0,0,0,0,0,0,0,0,0,0,0,0,0,0,0,0,0,0,0,0,0,0,0,0,0,0,0,0,0,0,0,0,0,0,0,0,0,0,0,0,0,0,0,0,0,0,0,0,0,0,0,0,0,0,0,0,0,0,0,0,0,0,0,0,0,0,0,0,0,0,0,0,0,0,0,0,0,0,0,0,0,0,0,0,0,0,0,0,0,0,0,0,0,0,0,0,0,0,0,0,0,0,0,0,0,0,0,0,0,0,0,0,0,0,0,0,0,0,0,0,0,0,0,0,0,0,0,0,0,0,0,0,0,0,0,0,0,0,0,0,0,0,0,0,0,0,0,0,0,0,0,0,0,0,0,0,0,0,0,0,0,0,0,0,0,0,0,0,0,0,0,0,0,0,0,0,0,0,0,0,0,0,0,0,0,0,0,0,0,0,0,0,0,0,0,0,0,0,0,0,0,0,0,0,0,0,0,0,0,0,0,0,0,0,0,0,0,0,0,0,0,0,0,0,0,0,0,0,0,0,0,0,0,0,0,0,0,0,0,0,0,0,0,0,0,0,0,0],"sum_hessian":[1.0296329E3,3.731331E2,6.5649994E2,2.6322852E2,3.932714E2,8.241017E1,1.8081836E2,2.882914E2,1.04979965E2,1.7420432E2,6.614036E0,1.4421716E2,2.9987156E1,1.1606751E2,2.8149652E1,1.7164548E2,1.16645935E2,1.6431784E2,7.3276434E0,3.08635E1,5.1546673E1,1.1122278E2,5.423158E0,2.2798311E1,8.842446E1,2.015795E2,1.7155357E2,8.909525E1,1.1248424E2,7.160063E1,9.27172E1,7.236856E1,4.369895E1,6.5620224E1,2.3475035E1,8.828796E0,2.2034704E1,6.238336E0,2.374882E1,8.839179E1,1.6588175E1,2.6172671E0,2.8058908E0,5.725512E0,1.70728E1,6.290404E1,9.464519E0,2.5693E1,2.5853672E1,1.9384657E1,2.6500456E0,2.3358456E1,2.4952154E0,8.1257545E1,7.1669173E0,2.9192722E0,4.247645E0,9.447722E0,7.6250772E0,2.544227E1,2.707382E0,7.980706E1,1.450483E0,1.2850237E1,1.2592032E1,6.841208E0,9.746967E0,1.10391205E2,2.0930367E0,5.0463996E0,1.1919365E0,3.650814E1,5.1883656E1,4.955996E1,2.3236952E0,3.6105762E0,3.7170675E0,2.1341166E0,1.582951E0,5.4451088E1,1.7149544E1,1.606013E0,2.1869022E1,1.9453146E1,3.9053092E0,2.7044337E0,1.6748713E1,3.535604E1,1.1520987E0,2.609669E1,2.346327E1,6.720399E0,1.674287E1,2.2167002E1,1.5818179E0,1.8052002E1,1.3326563E0,3.9412167E0,5.805751E0,2.5279346E0,1.4132823E0,2.8149431E1,6.456777E1,1.703942E2,1.1593779E0,4.0027565E1,3.6713881E0,2.2066977E0,4.6345105E0,1.1033233E1,7.018769E0,1.9581034E1,2.2879887E0,4.9780437E1,4.6706514E0,9.169926E0,7.9796176E0,6.1837574E1,3.782648E0,1.9654329E0,1.8172153E0,3.1611341E1,3.022623E1,1.1187321E1,1.903891E1,2.0073034E1,1.5283006E1,1.8398933E1,1.6741008E0,1.1240965E1,4.042041E0,6.3425644E1,1.1421303E0,1.6675451E1,2.3634584E0,1.1131815E0,1.2105136E0,1.4643514E0,2.1462245E0,2.0675824E0,2.566928E0,1.4886974E0,1.0782306E0,4.186592E0,1.5394442E1,3.3264854E0,1.2067956E1,1.103331E0,3.083261E0,1.0696567E0,1.0765679E0,1.7845425E1,4.321577E0,2.118196E1,4.9147296E0,6.1889434E0,1.6420526E2,2.948095E0,3.240848E0,1.0219981E2,6.2005455E1,4.480135E0,5.752532E1,2.002333E1,3.7501987E1,1.8947828E1,1.0755028E0,3.5813603E0,5.2474365E0,1.6155678E0,1.9657924E0,3.7479205E0,2.05783E0,2.1775758E0,1.5703448E0,2.0706902E0,2.4094448E0,1.1547453E0,1.2546993E0,8.635693E1,2.4034267E1,1.8015379E1,6.0188866E0,1.0211005E0,4.997786E0,4.7053657E0,1.3310015E1,1.255843E0,3.4495225E0,1.0479338E0,1.5693333E0,8.258876E1,3.7681777E0,2.675785E0,1.0923927E0,2.6778505E0,3.0476615E0,3.5917559E0,1.4060303E0,3.613418E1,1.3678106E0,2.9713445E0,3.6426916E0,1.8028712E0,1.1684732E0,3.4336736E0,1.8137629E0,1.1188481E0,1.829247E0,1.4868349E0,1.0083804E0,1.0385748E0,1.4893596E0,2.7262127E0,7.986255E1,1.2843542E0,1.4418584E0,7.831567E1,1.5468794E0,2.374837E0,2.671563E0,1.0522166E1,2.1089176E1,9.325426E0,1.1967397E0,1.9608776E1,1.4803996E0,9.729167E0,1.4581536E0,1.832965E1,7.3633494E0,1.4876786E1,3.4528654E0,1.2986596E0,2.1542058E0,7.5068045E0,7.3699813E0,1.475807E0,1.1742387E0,1.0708174E0,1.1358804E0,6.2658E0,1.0975493E0,8.63123E1,1.5887507E1,1.1551033E1,4.336475E0,2.6221147E0,1.71436E0,9.399322E0,2.1517112E0,1.5001931E0,1.3056978E0,1.6658723E0,1.9768193E0,1.6741714E0,1.0332106E0,1.2215014E1,1.0949997E0,1.0249517E0,2.408722E0,1.0973741E0,1.578411E0,1.0059212E0,1.0871153E0,1.0396439E0,1.0310462E0,3.5468136E1,5.0844162E1,6.6580696E0,2.8810064E1],"tree_param":{"num_deleted":"0","num_feature":"15","num_nodes":"271","size_leaf_vector":"1"}},{"base_weights":[-1.4077616E-1,-6.682621E-1,1.2873977E-1,5.548291E-1,-1.802894E-1,6.844218E-1,3.849726E-2,5.2848496E-3,-4.3147478E-1,-1.1663579E-1,4.4630495E-1,-4.8143813E-1,-8.281801E-1,-6.652281E-1,-6.500775E-2,5.2806574E-1,9.693322E-1,-4.8287544E-1,6.68553E-1,2.7877536E-1,-6.1107063E-1,7.6869285E-1,2.7092844E-1,-9.83472E-2,6.920553E-1,4.567668E-1,1.8914244E0,-1.9962597E-1,4.5147493E-1,-8.5925865E-1,4.4500253E-1,-9.77018E-1,-3.840986E-1,4.2446542E-1,-7.0252925E-1,-2.4999152E-1,2.2194129E-1,3.4395182E-3,-5.214149E-1,-8.012922E-2,1.6628407E-1,5.319749E-1,-2.6214033E-1,3.962546E-1,1.8977182E0,2.9823513E0,-0E0,6.112096E-1,-3.171031E-1,8.534092E-2,3.8194847E-1,-4.0672776E-1,4.579733E-1,2.3373978E-1,-2.074038E-2,8.2035047E-1,-6.511818E-1,5.0775293E-2,-3.3474943E-1,-4.0967146E-1,1.0853533E0,4.096163E-1,-4.262295E-1,-5.054267E-2,1.5295127E-1,7.618457E-1,4.7736356E-1,-5.4256606E-1,1.2863171E-1,9.5509756E-1,8.310709E-3,-1.2563096E-1,1.3126519E0,4.406644E-1,3.7033696E-2,1.1570759E0,-3.0323732E-1,-1.5749824E-1,1.9879729E-1,1.1508066E-1,-1.505096E-1,-1.02760784E-1,1.128369E-1,6.972989E-1,-5.560166E-1,-9.8315775E-1,4.662076E-2,-5.1045346E-1,3.7489563E-1,-1.4027035E-1,-0E0,-2.2393222E-1,7.23258E-1,-6.0922097E-2,3.716801E-1,-7.510067E-2,1.1563095E0,-9.979487E-2,1.8397982E0,1.8203358E-1,6.951897E-1,8.863635E-1,1.6146327E0,-2.4132715E-1,-1.9402485E-2,-4.5882013E-2,5.155515E-1,1.2814744E0,-2.5637352E-1,-0E0,-2.7960593E-1,-1.01236284E-1,2.2367981E-1,3.014302E-1,-4.3251976E-1,-8.961702E-1,3.6078987E-1,5.623039E-1,-4.1520473E-1,4.2043164E-1,5.15734E-1,1.450426E-1,-1.2808019E-1,-1.5422794E-1,2.4134908E-2,-2.6400796E-1,1.3043114E-2,1.0469302E0,5.749968E-1,3.0330423E-1,1.4536165E0,1.6397452E-1,-7.78193E-2,5.6718785E-1,1.2463493E0,5.677983E-1,1.65366E-1,-5.3266907E-1,-9.0318763E-1,1.3441798E-1,-5.958274E-1,-8.0466104E-1,1.3869405E0,-6.483191E-1,2.6190653E-1,-2.308343E-1,3.3032593E-1,-1.3363038E-1,-7.5451773E-1,-1.3997233E-1,1.3302575E-1,5.327334E-2,-1.820249E-1,-9.9117315E-1,-0E0,1.7949106E-1,-4.421574E-2,1.8328987E0,-0E0,3.5189575E-1,-0E0,5.979296E-2,7.539795E-1,5.323995E-1,-2.6440114E-1,2.0362084E-1,-2.629462E-1,1.6018759E-1,-1.350596E-1,-0E0,4.0004015E-1,1.2861669E-1,2.1494732E0,-9.106702E-1,-5.799404E-1,-6.579952E-1,1.8498816E-1,1.350398E-1,-7.3881036E-1,-1.0059518E0,-2.5180566E-1,7.596688E-2,-2.1332748E-1,-6.769138E-1,-9.859542E-1,-7.442121E-1,2.7076006E-1,9.112706E-1,-0E0,-3.1693286E-1,2.3967834E-1,4.365571E-1,1.5083095E-1,5.028214E-1,4.6627704E-2,2.1733613E-1,-5.942023E-1,1.8280737E-1,3.206086E-1,-0E0,-2.6985744E-1,-8.054686E-1,2.5090224E-1,6.291956E-2,5.0004613E-1,-1.0002756E0,-0E0,3.829075E-1,8.8852084E-1,7.262382E-2,-8.863491E-1,-0E0,-2.634442E-1,-2.53928E-1,-3.7424234E-1,-5.4931894E-2,-8.985084E-1,-3.3885136E-1,2.5600013E-1,3.231365E-2,-2.5117624E-1,-7.406669E-2,2.4919476E-1,5.544786E-1,2.17114E-1,-3.5307802E-2,-2.4994518E-1,5.856325E-2,4.705102E-1,-4.8657423E-1,-1.0275136E0,3.193596E-1,-2.5380298E-1,-1.7286848E-2,-2.3325945E-1,-2.8851292E-1,-0E0,-3.384594E-1,-8.376564E-1,-2.0817448E-1,1.2869915E-1,-0E0,-1.9862089E-1,-2.5772743E-2,-2.5551167E-1,5.4035857E-3,2.9528198E-1,-1.1336037E0,-7.5253206E-1,-1.2135008E-1,-2.3690148E-1,-2.3798575E-1,1.1182116E-1,-2.638011E-1,-0E0,-2.4207902E-1,-0E0,-2.5530738E-1,-1.5149686E-2,-9.622706E-3,-2.3527609E-1,-3.2941334E-2,-2.4984692E-1,-2.1033171E-1,-2.4782238E-4],"categories":[],"categories_nodes":[],"categories_segments":[],"categories_sizes":[],"default_left":[0,0,0,0,0,0,0,0,0,0,0,0,0,0,0,0,0,0,0,0,0,0,0,0,0,0,0,0,0,0,0,0,0,0,0,0,0,0,0,0,0,0,0,0,0,0,0,0,0,0,0,0,0,0,0,0,0,0,0,0,0,0,0,0,0,0,0,0,0,0,0,0,0,0,0,0,0,0,0,0,0,0,0,0,0,0,0,0,0,0,0,0,0,0,0,0,0,0,0,0,0,0,0,0,0,0,0,0,0,0,0,0,0,0,0,0,0,0,0,0,0,0,0,0,0,0,0,0,0,0,0,0,0,0,0,0,0,0,0,0,0,0,0,0,0,0,0,0,0,0,0,0,0,0,0,0,0,0,0,0,0,0,0,0,0,0,0,0,0,0,0,0,0,0,0,0,0,0,0,0,0,0,0,0,0,0,0,0,0,0,0,0,0,0,0,0,0,0,0,0,0,0,0,0,0,0,0,0,0,0,0,0,0,0,0,0,0,0,0,0,0,0,0,0,0,0,0,0,0,0,0,0,0,0,0,0,0,0,0,0,0,0,0,0,0,0,0,0,0,0,0,0,0,0,0,0,0,0,0,0,0,0,0,0,0],"id":2,"left_children":[1,11,3,5,7,15,19,9,17,27,41,13,29,137,67,21,101,31,95,105,213,55,23,91,25,39,135,57,69,173,33,35,37,-1,259,-1,-1,51,83,-1,-1,43,-1,47,45,207,-1,49,77,-1,-1,79,53,-1,-1,65,235,61,59,81,159,63,123,-1,-1,155,-1,85,113,71,75,-1,73,-1,-1,203,125,-1,-1,-1,-1,-1,-1,245,89,211,87,209,-1,-1,-1,103,93,-1,-1,-1,97,-1,99,-1,-1,127,157,-1,-1,107,161,227,109,111,-1,-1,-1,117,115,199,-1,119,201,121,-1,-1,-1,-1,-1,-1,-1,133,129,131,169,-1,-1,167,197,-1,-1,139,153,141,143,255,193,147,145,-1,-1,149,151,-1,-1,-1,-1,247,195,-1,-1,171,-1,-1,-1,163,187,165,-1,-1,-1,-1,-1,-1,-1,-1,223,183,175,177,-1,-1,179,225,181,-1,-1,185,205,237,-1,191,189,-1,-1,-1,-1,-1,-1,-1,263,-1,-1,-1,-1,243,221,-1,-1,229,-1,-1,-1,-1,261,-1,-1,-1,215,217,257,219,-1,-1,-1,-1,-1,-1,-1,-1,-1,-1,-1,231,233,-1,-1,-1,-1,-1,-1,239,241,-1,-1,-1,-1,-1,-1,-1,-1,253,249,251,-1,-1,-1,-1,-1,-1,-1,-1,-1,-1,-1,-1,-1,-1,-1],"loss_changes":[1.4083984E2,9.665573E0,8.6302444E1,1.8250038E1,1.778318E1,9.402618E0,8.605876E0,1.1777557E1,9.093481E0,7.9435606E0,6.4288273E0,1.1691856E1,7.22097E0,3.0078773E0,4.5451465E0,8.548721E0,3.4834518E0,7.193817E0,3.6402009E0,3.2708101E0,1.4370556E0,5.408024E0,1.0954845E1,3.6532354E0,8.633826E0,6.556088E0,3.0177078E0,5.1031427E0,4.4910045E0,2.131897E0,7.1260653E0,7.081175E0,7.019556E0,0E0,2.1691799E-1,0E0,0E0,6.2307563E0,4.012459E0,0E0,0E0,7.7995043E0,0E0,6.425375E0,7.6894827E0,1.5931492E0,0E0,7.53384E0,4.301398E0,0E0,0E0,4.2731104E0,5.4665074E0,0E0,0E0,4.6816673E0,1.0588585E0,8.796568E0,1.0167002E1,4.218355E0,2.5010095E0,5.296202E0,3.2172894E0,0E0,0E0,2.8339958E0,0E0,3.9394913E0,3.2382746E0,5.443097E0,4.368864E0,0E0,5.4577093E0,0E0,0E0,1.8461218E0,3.1287363E0,0E0,0E0,0E0,0E0,0E0,0E0,6.733347E-1,3.8215485E0,1.468565E0,5.6068144E0,1.4757981E0,0E0,0E0,0E0,3.459465E0,4.6539006E0,0E0,0E0,0E0,5.712729E0,0E0,3.5763378E0,0E0,0E0,3.018097E0,2.5327148E0,0E0,0E0,4.427593E0,2.410924E0,1.1680968E0,3.969631E0,5.3217707E0,0E0,0E0,0E0,4.9293423E0,7.015082E0,1.920713E0,0E0,4.0987086E0,1.8907965E0,4.131901E0,0E0,0E0,0E0,0E0,0E0,0E0,0E0,3.8185616E0,5.266262E0,5.299814E0,2.339611E0,0E0,0E0,2.4033704E0,1.9303017E0,0E0,0E0,3.0536098E0,2.954445E0,6.8148513E0,2.9804726E0,4.598E-1,1.9438419E0,3.077015E0,5.470821E0,0E0,0E0,3.876892E0,3.101677E0,0E0,0E0,0E0,0E0,6.710396E-1,1.9414811E0,0E0,0E0,2.1956177E0,0E0,0E0,0E0,4.922739E0,1.9663048E0,4.093058E0,0E0,0E0,0E0,0E0,0E0,0E0,0E0,0E0,1.3053837E0,2.1609344E0,3.0433378E0,2.7692776E0,0E0,0E0,2.9729729E0,1.1912441E0,4.042704E0,0E0,0E0,4.55451E0,1.7180634E0,1.0442181E0,0E0,2.5049467E0,3.873855E0,0E0,0E0,0E0,0E0,0E0,0E0,0E0,1.909759E-1,0E0,0E0,0E0,0E0,7.146063E-1,1.3288287E0,0E0,0E0,1.1330948E0,0E0,0E0,0E0,0E0,2.0455027E-1,0E0,0E0,0E0,1.5091501E0,2.1201909E0,4.2514634E-1,2.4218376E0,0E0,0E0,0E0,0E0,0E0,0E0,0E0,0E0,0E0,0E0,0E0,7.3688164E0,1.2684021E0,0E0,0E0,0E0,0E0,0E0,0E0,3.9962752E0,1.2454376E0,0E0,0E0,0E0,0E0,0E0,0E0,0E0,0E0,8.2645226E-1,2.3095512E0,2.9045844E0,0E0,0E0,0E0,0E0,0E0,0E0,0E0,0E0,0E0,0E0,0E0,0E0,0E0,0E0,0E0],"parents":[2147483647,0,0,2,2,3,3,4,4,7,7,1,1,11,11,5,5,8,8,6,6,15,15,22,22,24,24,9,9,12,12,17,17,30,30,31,31,32,32,25,25,10,10,41,41,44,44,43,43,47,47,37,37,52,52,21,21,27,27,58,58,57,57,61,61,55,55,14,14,28,28,69,69,72,72,70,70,48,48,51,51,59,59,38,38,67,67,86,86,84,84,23,23,92,92,18,18,96,96,98,98,16,16,91,91,19,19,105,105,108,108,109,109,68,68,114,114,113,113,117,117,119,119,62,62,76,76,101,101,128,128,129,129,127,127,26,26,13,13,137,137,139,139,140,140,144,144,143,143,147,147,148,148,138,138,65,65,102,102,60,60,106,106,161,161,163,163,133,133,130,130,157,157,29,29,174,174,175,175,178,178,180,180,173,173,183,183,162,162,188,188,187,187,142,142,154,154,134,134,115,115,118,118,75,75,184,184,45,45,87,87,85,85,20,20,214,214,215,215,217,217,202,202,172,172,179,179,107,107,205,205,229,229,230,230,56,56,185,185,237,237,238,238,201,201,83,83,153,153,248,248,249,249,247,247,141,141,216,216,34,34,210,210,196,196],"right_children":[2,12,4,6,8,16,20,10,18,28,42,14,30,138,68,22,102,32,96,106,214,56,24,92,26,40,136,58,70,174,34,36,38,-1,260,-1,-1,52,84,-1,-1,44,-1,48,46,208,-1,50,78,-1,-1,80,54,-1,-1,66,236,62,60,82,160,64,124,-1,-1,156,-1,86,114,72,76,-1,74,-1,-1,204,126,-1,-1,-1,-1,-1,-1,246,90,212,88,210,-1,-1,-1,104,94,-1,-1,-1,98,-1,100,-1,-1,128,158,-1,-1,108,162,228,110,112,-1,-1,-1,118,116,200,-1,120,202,122,-1,-1,-1,-1,-1,-1,-1,134,130,132,170,-1,-1,168,198,-1,-1,140,154,142,144,256,194,148,146,-1,-1,150,152,-1,-1,-1,-1,248,196,-1,-1,172,-1,-1,-1,164,188,166,-1,-1,-1,-1,-1,-1,-1,-1,224,184,176,178,-1,-1,180,226,182,-1,-1,186,206,238,-1,192,190,-1,-1,-1,-1,-1,-1,-1,264,-1,-1,-1,-1,244,222,-1,-1,230,-1,-1,-1,-1,262,-1,-1,-1,216,218,258,220,-1,-1,-1,-1,-1,-1,-1,-1,-1,-1,-1,232,234,-1,-1,-1,-1,-1,-1,240,242,-1,-1,-1,-1,-1,-1,-1,-1,254,250,252,-1,-1,-1,-1,-1,-1,-1,-1,-1,-1,-1,-1,-1,-1,-1],"split_conditions":[9.193846E-1,2.55E2,8.8E1,4.3E1,1E0,1.0883088E0,1E0,1.1038802E0,1E0,1.9521E4,3E1,8.3388704E-1,7.9E1,1E0,6.8117315E-6,2.6E1,4.992E0,5.994E3,4.3E1,1.041E0,5E1,1.0865844E0,1.35E4,7.6E1,8.4E1,1.4296296E-1,1.4702703E-1,6E0,1E0,7.2E1,1E0,1.1388724E0,1E0,4.2446542E-1,1.01E4,-2.4999152E-1,2.2194129E-1,1.04705885E-1,6.58E3,-8.012922E-2,1.6628407E-1,1.026E3,-2.6214033E-1,4.2E2,2.6E1,1.188E3,-0E0,3.2E2,1.8523003E0,8.534092E-2,3.8194847E-1,3.7235293E-1,1.2133334E0,2.3373978E-1,-2.074038E-2,1E0,1.25625E-1,1.0163198E-5,1.0843421E1,1E0,1.8E1,2.6057143E0,1.89E2,-5.054267E-2,1.5295127E-1,2.5083333E-1,4.7736356E-1,1.75E4,4.1384616E-1,3.7714286E0,3.83887E-6,-1.2563096E-1,3.12E2,4.406644E-1,3.7033696E-2,7.2E1,9.6E-1,-1.5749824E-1,1.9879729E-1,1.1508066E-1,-1.505096E-1,-1.02760784E-1,1.128369E-1,7.2E2,9.6E1,8.63E3,1.72E2,1.95E4,3.7489563E-1,-1.4027035E-1,-0E0,9.570662E-1,2.2633092E0,-6.0922097E-2,3.716801E-1,-7.510067E-2,3.7E1,-9.979487E-2,8.3636366E-2,1.8203358E-1,6.951897E-1,3.4E0,1.1584773E0,-2.4132715E-1,-1.9402485E-2,9.501167E-1,4.6568527E0,9.4171715E-1,1.2705882E-1,1.0119483E-5,-2.7960593E-1,-1.01236284E-1,2.2367981E-1,8.9433277E-1,9.072149E-1,3.7E1,3.6078987E-1,4E0,7.2E1,5.1E1,5.15734E-1,1.450426E-1,-1.2808019E-1,-1.5422794E-1,2.4134908E-2,-2.6400796E-1,1.3043114E-2,8.3333336E-2,1.7466667E-1,1.3846155E-1,1.2234E4,1.6397452E-1,-7.78193E-2,1.5876E4,1.0086E4,5.677983E-1,1.65366E-1,2.8E3,2.04E2,2.152E3,1.818E4,1.04705885E-1,6.4173825E-2,7.9E3,7.314107E-6,-2.308343E-1,3.3032593E-1,2.392E0,4.1715976E-2,-1.3997233E-1,1.3302575E-1,5.327334E-2,-1.820249E-1,7.196262E-1,1.1974E4,1.7949106E-1,-4.421574E-2,7.8451885E-6,-0E0,3.5189575E-1,-0E0,3.75E0,1.9312E4,9.6E1,-2.6440114E-1,2.0362084E-1,-2.629462E-1,1.6018759E-1,-1.350596E-1,-0E0,4.0004015E-1,1.2861669E-1,1.0785134E-5,9.281E3,7.4E1,1.3670236E0,1.8498816E-1,1.350398E-1,1.5171429E0,3.8E1,2.4136364E0,7.596688E-2,-2.1332748E-1,7.3E3,2.8714284E-1,4.6E1,2.7076006E-1,7.997018E-6,2.1775E4,-3.1693286E-1,2.3967834E-1,4.365571E-1,1.5083095E-1,5.028214E-1,4.6627704E-2,2.1733613E-1,6.9281524E-1,1.8280737E-1,3.206086E-1,-0E0,-2.6985744E-1,1.06E4,9.038961E-1,6.291956E-2,5.0004613E-1,2.8491163E-1,-0E0,3.829075E-1,8.8852084E-1,7.262382E-2,4.1E1,-0E0,-2.634442E-1,-2.53928E-1,5.7E1,5.6E1,6E1,1.36E4,2.5600013E-1,3.231365E-2,-2.5117624E-1,-7.406669E-2,2.4919476E-1,5.544786E-1,2.17114E-1,-3.5307802E-2,-2.4994518E-1,5.856325E-2,4.705102E-1,1.23259715E-5,2.7529413E-1,3.193596E-1,-2.5380298E-1,-1.7286848E-2,-2.3325945E-1,-2.8851292E-1,-0E0,5.94E2,2.152E3,-2.0817448E-1,1.2869915E-1,-0E0,-1.9862089E-1,-2.5772743E-2,-2.5551167E-1,5.4035857E-3,2.9528198E-1,1.0575E1,1.1282E4,1.235474E-1,-2.3690148E-1,-2.3798575E-1,1.1182116E-1,-2.638011E-1,-0E0,-2.4207902E-1,-0E0,-2.5530738E-1,-1.5149686E-2,-9.622706E-3,-2.3527609E-1,-3.2941334E-2,-2.4984692E-1,-2.1033171E-1,-2.4782238E-4],"split_indices":[11,12,12,1,9,11,9,11,7,3,0,11,1,9,10,12,14,2,1,11,1,11,3,12,5,13,6,0,8,5,8,11,8,0,2,0,0,6,2,0,0,12,0,12,0,12,0,12,13,0,0,13,13,0,0,7,6,10,14,7,0,14,12,0,0,6,0,2,13,14,10,0,12,0,0,5,13,0,0,0,0,0,0,12,5,3,12,2,0,0,0,11,14,0,0,0,5,0,6,0,0,14,11,0,0,11,14,11,6,10,0,0,0,11,11,5,0,0,5,1,0,0,0,0,0,0,0,6,6,6,2,0,0,3,3,0,0,3,12,3,3,6,6,2,10,0,0,14,6,0,0,0,0,11,2,0,0,10,0,0,0,14,3,5,0,0,0,0,0,0,0,0,10,2,1,14,0,0,13,1,13,0,0,3,6,1,0,10,3,0,0,0,0,0,0,0,11,0,0,0,0,2,11,0,0,11,0,0,0,0,12,0,0,0,1,1,12,2,0,0,0,0,0,0,0,0,0,0,0,10,13,0,0,0,0,0,0,12,3,0,0,0,0,0,0,0,0,14,2,13,0,0,0,0,0,0,0,0,0,0,0,0,0,0,0],"split_type":[0,0,0,0,0,0,0,0,0,0,0,0,0,0,0,0,0,0,0,0,0,0,0,0,0,0,0,0,0,0,0,0,0,0,0,0,0,0,0,0,0,0,0,0,0,0,0,0,0,0,0,0,0,0,0,0,0,0,0,0,0,0,0,0,0,0,0,0,0,0,0,0,0,0,0,0,0,0,0,0,0,0,0,0,0,0,0,0,0,0,0,0,0,0,0,0,0,0,0,0,0,0,0,0,0,0,0,0,0,0,0,0,0,0,0,0,0,0,0,0,0,0,0,0,0,0,0,0,0,0,0,0,0,0,0,0,0,0,0,0,0,0,0,0,0,0,0,0,0,0,0,0,0,0,0,0,0,0,0,0,0,0,0,0,0,0,0,0,0,0,0,0,0,0,0,0,0,0,0,0,0,0,0,0,0,0,0,0,0,0,0,0,0,0,0,0,0,0,0,0,0,0,0,0,0,0,0,0,0,0,0,0,0,0,0,0,0,0,0,0,0,0,0,0,0,0,0,0,0,0,0,0,0,0,0,0,0,0,0,0,0,0,0,0,0,0,0,0,0,0,0,0,0,0,0,0,0,0,0,0,0,0,0,0,0],"sum_hessian":[9.8967786E2,3.349993E2,6.546786E2,2.755693E2,3.7910928E2,2.1987614E2,5.569315E1,2.1743172E2,1.6167757E2,1.6987672E2,4.755498E1,1.5525894E2,1.7974036E2,1.0728165E2,4.7977303E1,1.4256148E2,7.7314674E1,1.5468802E2,6.9895563E0,4.0949272E1,1.474388E1,7.31182E1,6.944327E1,3.666891E1,3.2774357E1,2.7583004E1,5.191354E0,1.4862651E2,2.1250225E1,1.7565839E2,4.0819736E0,2.5327087E1,1.2936093E2,1.9009709E0,2.1810026E0,2.3756924E1,1.5701643E0,3.3346226E1,9.60147E1,6.9459014E0,2.0637102E1,4.531918E1,2.2358012E0,4.1398346E1,3.9208364E0,2.4513507E0,1.4694859E0,3.2094322E1,9.304025E0,2.674227E1,5.3520503E0,1.7226103E1,1.6120123E1,8.028484E0,8.091639E0,7.072969E1,2.3885155E0,5.141412E1,9.721239E1,9.2516464E1,4.6959195E0,2.9654366E1,2.1759754E1,8.657356E0,2.099701E1,6.7909225E1,2.8204618E0,1.4230518E1,3.3746784E1,9.669661E0,1.1580565E1,1.7046437E0,7.9650173E0,4.9144783E0,3.050539E0,2.6490865E0,8.9314785E0,7.2069163E0,2.0971084E0,3.6441593E0,1.35819435E1,8.7991905E1,4.5245605E0,2.4414136E0,9.357329E1,8.395565E0,5.834954E0,4.229988E0,1.6049659E0,8.318446E1,1.0388822E1,3.2084053E1,4.5848556E0,2.0907998E0,2.494056E0,2.109412E0,4.880144E0,1.3446741E0,3.53547E0,2.0710177E0,1.4644523E0,6.886829E1,8.446377E0,4.1676464E0,2.7916409E1,1.6804174E1,2.4145096E1,2.1290987E0,1.46750765E1,1.1522064E1,3.1530123E0,7.8069587E0,3.7151053E0,2.615844E1,7.5883455E0,6.291428E0,1.2969176E0,1.94452E1,6.7132387E0,1.8122944E1,1.322257E0,1.4949769E1,3.173174E0,1.4896546E1,6.8632073E0,2.8161602E0,6.1153183E0,4.4880886E1,2.398741E1,1.8550486E1,5.4369245E0,1.1414096E1,7.13639E0,1.35647335E1,3.1316154E1,3.1750662E0,2.0162876E0,6.960847E1,3.7673176E1,5.662008E0,6.394646E1,3.1167703E0,2.5452375E0,6.0546432E1,3.4000304E0,1.5425378E0,1.8574924E0,1.077788E1,4.976855E1,6.645545E0,4.1323347E0,2.574927E0,4.7193626E1,3.428871E1,3.3844633E0,6.5384766E1,2.5244641E0,7.308143E0,1.1382337E0,3.241263E0,1.4546568E0,8.670349E0,1.5474746E1,6.4342422E0,2.236107E0,5.393353E0,1.0408893E0,1.2229137E1,1.3355962E0,1.119071E0,4.3178535E0,1.6366104E0,5.6715326E0,1.4755917E2,2.809922E1,2.6799467E1,1.2997518E0,1.4175276E0,2.538194E1,1.6043156E1,9.338784E0,4.8674774E0,4.471307E0,3.6795723E1,1.1076344E2,3.5663822E1,1.131901E0,1.2961184E1,2.5135622E0,1.139892E0,1.3736701E0,2.192747E0,1.0768436E1,1.3409035E0,1.2043339E0,1.2581841E0,2.1262794E0,9.967297E0,2.1348858E1,1.50629E0,4.785138E0,4.4806056E0,2.2326334E0,1.597439E0,1.0516474E0,1.0933153E2,1.4319165E0,1.1924917E0,1.2588589E0,1.0968214E0,3.1331666E0,1.4948277E0,6.900737E0,4.2396817E0,1.0504199E1,6.8391047E0,3.6650944E0,5.7076287E0,1.1314756E0,3.3262148E0,2.381414E0,1.1532183E0,1.079415E0,4.253825E0,1.4177074E0,2.1460423E0,1.3897114E1,1.0938315E0,1.0352671E0,5.989971E0,1.0334156E2,1.4132408E0,4.5767303E0,1.9721491E0,1.0136941E2,1.2429106E0,1.1456048E0,7.200998E0,2.8462822E1,4.5420494E0,2.6589487E0,1.5851326E0,2.687769E1,1.7265377E0,2.7540677E0,1.376401E0,1.0650128E0,2.0783495E1,1.3505217E1,4.700359E0,8.804857E0,2.0339139E0,2.666445E0,1.9773478E1,1.0100167E0,2.1125686E0,1.0042015E0,2.5903552E0,1.0747392E0,1.0156996E0,1.1653031E0,1.0169108E0,2.1162558E0,1.0631027E0,1.0631766E0],"tree_param":{"num_deleted":"0","num_feature":"15","num_nodes":"265","size_leaf_vector":"1"}},{"base_weights":[-1.231904E-1,-5.9356785E-1,9.558295E-2,4.313507E-1,-1.4186232E-1,-5.9699404E-1,-6.2666915E-2,5.289444E-1,3.3478532E-2,-4.3733352E-1,-7.906753E-1,-4.5713487E-1,5.3897547E-3,1.5177146E-1,-2.1339074E-1,-4.5829797E-1,4.240174E-1,3.4786716E-1,7.1633285E-1,2.1429332E-1,-4.5547158E-1,3.9152363E-1,-9.244267E-1,-0E0,5.534344E-1,-2.737896E-1,1.026197E0,6.7144006E-1,-1.2192993E-1,-9.050026E-2,3.930595E-1,1.8230729E-1,1.5420847E0,-0E0,6.451745E-1,3.164017E-1,-1.08928636E-1,2.2930764E-1,-5.326693E-1,1.4324532E-1,-3.5828194E-1,-2.7768406E-1,-6.535502E-1,8.485273E-1,-8.735575E-2,-8.354416E-2,3.768192E-1,-9.959455E-2,1.744028E-1,-3.1519124E-1,3.0275583E-1,-4.7904462E-1,4.821611E-2,-6.903217E-1,3.1253272E-1,-2.5589275E-1,4.5854422E-1,3.276481E-2,2.4465524E-1,5.367577E-1,1.1128159E-1,1.0176394E0,5.855296E-1,4.1318122E-1,1.0646586E0,1.5752196E0,3.2801288E-1,-1.956585E-1,1.7849517E-1,2.8555809E-2,6.316055E-1,4.5252483E-2,-2.9388827E-1,1.3438089E0,5.352121E-1,1.8947171E0,9.425792E-2,4.587241E-1,1.3923515E-1,-1.0275215E-1,1.8912593E-1,-7.6236236E-1,2.6588538E-1,-5.0595075E-2,1.2767526E0,2.9017487E-1,-3.754281E-2,-4.9955872E-1,2.772698E-1,2.741894E-1,-6.001026E-1,-1.2302043E-1,4.414248E-1,-6.757055E-1,4.4017214E-1,4.251422E-1,-2.4447417E-1,-1.9083838E-1,2.0819293E-1,-7.0072097E-1,1.084434E-1,-3.6651877E-1,3.4248507E-1,1.9778687E-1,-5.489495E-1,-1.5160255E-1,2.4619968E-1,-1.9469362E-1,-8.248001E-2,-1.70004E-1,2.5565337E-2,4.234869E-1,1.2349676E-1,-4.8495382E-1,-6.2254895E-2,-1.4145751E-1,4.913648E-3,4.8024707E-2,-1.1475306E-1,-4.96615E-1,-1.0065652E0,1.7638597E-1,6.639927E-2,-8.047963E-1,1.0908552E-1,-1.3880478E-1,-8.021499E-1,-2.5537404E-1,5.646016E-2,-2.85344E-2,-8.360679E-1,-8.236013E-2,2.474011E-1,1.555134E-1,1.0896536E0,8.1464164E-2,1.1405814E0,-6.0794957E-2,6.9451296E-1,-1.0320933E-1,4.4087008E-2,4.9109674E-1,-0E0,4.1449356E-1,6.366646E-2,-1.3891326E-1,-8.3219624E-1,4.8102066E-1,-2.3638844E-1,-1.090554E0,-7.27934E-1,-9.156998E-1,-5.121508E-1,-4.0363994E-1,-2.5216657E-1,2.253077E-1,-1.02987126E-1,-9.5191205E-1,5.3211164E-2,-3.247126E-1,-0E0,4.1172896E-2,-2.3735242E-1,-0E0,-2.2367185E-1,-2.4677478E-1,-1.9647732E-1,1.5885401E-1,-2.2926722E-1,5.218657E-2,-2.3578131E-1,-7.3711383E-1,-8.110984E-2,2.3076758E-1,-7.569901E-1,-7.8701097E-1,-4.2061657E-2,-2.3809537E-1,1.4305407E-1,-1.13534294E-1,-2.145216E-1,8.905081E-2,-2.6501027E-1,-1.0978612E-1,2.5528234E-1,7.91333E-1,-1.02636576E-1,-0E0,2.6457927E-1,5.5242416E-2,4.1250548E-1,-5.937782E-3,-7.4275726E-1,5.863126E-1,-2.4155937E-1,9.3205804E-1,1.5683181E0,4.0404534E-1,6.963961E-2,6.946419E-2,4.5905834E-1,3.7973246E-1,1.1757796E-1,-8.9754677E-1,-0E0,-4.280444E-2,-2.5336587E-1,-7.822536E-2,-2.2241993E-1,-0E0,2.414282E-1,-2.3287442E-1,-0E0,-2.4954325E-1,-9.223652E-2,3.9751176E-2,2.6453087E-1,2.8025326E-1,5.4976237E-1],"categories":[],"categories_nodes":[],"categories_segments":[],"categories_sizes":[],"default_left":[0,0,0,0,0,0,0,0,0,0,0,0,0,0,0,0,0,0,0,0,0,0,0,0,0,0,0,0,0,0,0,0,0,0,0,0,0,0,0,0,0,0,0,0,0,0,0,0,0,0,0,0,0,0,0,0,0,0,0,0,0,0,0,0,0,0,0,0,0,0,0,0,0,0,0,0,0,0,0,0,0,0,0,0,0,0,0,0,0,0,0,0,0,0,0,0,0,0,0,0,0,0,0,0,0,0,0,0,0,0,0,0,0,0,0,0,0,0,0,0,0,0,0,0,0,0,0,0,0,0,0,0,0,0,0,0,0,0,0,0,0,0,0,0,0,0,0,0,0,0,0,0,0,0,0,0,0,0,0,0,0,0,0,0,0,0,0,0,0,0,0,0,0,0,0,0,0,0,0,0,0,0,0,0,0,0,0,0,0,0,0,0,0,0,0,0,0,0,0,0,0,0,0,0,0,0,0,0,0,0,0,0,0,0,0,0,0,0,0],"id":3,"left_children":[1,9,3,7,5,53,11,17,37,15,123,87,13,19,39,41,-1,21,61,31,129,23,159,25,27,29,59,121,35,-1,-1,57,33,-1,-1,-1,-1,133,191,43,113,49,99,45,47,-1,-1,-1,-1,51,-1,103,83,81,55,181,-1,-1,-1,-1,-1,73,63,69,65,77,67,-1,-1,71,111,-1,-1,195,75,217,79,-1,-1,-1,-1,119,185,85,199,-1,-1,89,-1,91,93,97,-1,109,95,-1,-1,-1,-1,171,101,169,-1,105,107,-1,-1,-1,-1,-1,-1,-1,-1,115,117,-1,-1,-1,-1,125,165,-1,-1,145,-1,127,163,-1,-1,131,161,-1,-1,135,189,137,141,139,143,-1,-1,-1,-1,-1,-1,147,149,187,-1,213,151,157,153,155,-1,-1,-1,207,-1,-1,-1,-1,-1,-1,-1,-1,167,-1,-1,-1,-1,175,173,-1,211,179,177,-1,-1,-1,-1,183,-1,-1,-1,215,-1,-1,-1,-1,-1,193,203,209,-1,197,201,-1,-1,-1,-1,-1,-1,205,-1,-1,-1,-1,-1,-1,-1,-1,-1,-1,-1,-1,-1,-1,-1],"loss_changes":[9.784683E1,8.972977E0,5.171838E1,1.0289387E1,1.3487158E1,4.8254013E0,8.797371E0,7.0270233E0,5.8490376E0,7.899742E0,2.4795837E0,3.2732573E0,8.796008E0,6.2231874E0,5.719022E0,5.6707993E0,0E0,5.9824877E0,3.7219887E0,5.9407663E0,2.2218509E0,6.9088306E0,1.9897139E0,8.453183E0,6.1995373E0,6.167076E0,3.8053842E0,2.5775013E0,5.920619E0,0E0,0E0,4.472819E0,7.1494217E0,0E0,0E0,0E0,0E0,2.2182322E0,1.2868795E0,5.263586E0,2.7985039E0,5.104404E0,3.0268211E0,8.479793E0,7.117171E0,0E0,0E0,0E0,0E0,5.234129E0,0E0,2.9202385E0,3.5053718E0,3.6267147E0,5.334244E0,1.4402095E0,0E0,0E0,0E0,0E0,0E0,4.4180756E0,5.7146683E0,4.42671E0,6.7022877E0,4.337839E0,4.5367737E0,0E0,0E0,4.4418774E0,2.8064423E0,0E0,0E0,1.0352783E0,7.2209673E0,1.1688423E-1,4.222724E0,0E0,0E0,0E0,0E0,2.6859665E0,1.3455274E0,3.5159028E0,9.939146E-1,0E0,0E0,3.7506514E0,0E0,3.942546E0,3.3647652E0,3.0823936E0,0E0,2.806467E0,6.06815E0,0E0,0E0,0E0,0E0,1.4897575E0,3.236878E0,1.5008284E0,0E0,4.2637343E0,2.835411E0,0E0,0E0,0E0,0E0,0E0,0E0,0E0,0E0,4.230179E0,3.0938916E0,0E0,0E0,0E0,0E0,2.2945662E0,1.5685654E0,0E0,0E0,2.1444397E0,0E0,4.592976E0,1.8086991E0,0E0,0E0,2.6725187E0,1.989028E0,0E0,0E0,2.3928807E0,1.2889082E0,3.2040548E0,2.7238183E0,2.958138E0,2.7218237E0,0E0,0E0,0E0,0E0,0E0,0E0,3.3256505E0,2.9144745E0,1.3258519E0,0E0,2.17659E-1,3.2894402E0,2.179863E0,2.4537134E0,2.8111606E0,0E0,0E0,0E0,8.511162E-1,0E0,0E0,0E0,0E0,0E0,0E0,0E0,0E0,2.2542648E0,0E0,0E0,0E0,0E0,2.2444267E0,3.3845341E0,0E0,4.3044376E-1,2.7888107E0,3.674354E0,0E0,0E0,0E0,0E0,1.6485819E0,0E0,0E0,0E0,1.5457225E-1,0E0,0E0,0E0,0E0,0E0,2.7883062E0,9.083543E-1,4.9827302E-1,0E0,3.1763363E0,9.688988E-1,0E0,0E0,0E0,0E0,0E0,0E0,8.9259386E-1,0E0,0E0,0E0,0E0,0E0,0E0,0E0,0E0,0E0,0E0,0E0,0E0,0E0,0E0,0E0],"parents":[2147483647,0,0,2,2,4,4,3,3,1,1,6,6,12,12,9,9,7,7,13,13,17,17,21,21,23,23,24,24,25,25,19,19,32,32,28,28,8,8,14,14,15,15,39,39,43,43,44,44,41,41,49,49,5,5,54,54,31,31,26,26,18,18,62,62,64,64,66,66,63,63,69,69,61,61,74,74,65,65,76,76,53,53,52,52,83,83,11,11,87,87,89,89,90,90,94,94,91,91,42,42,100,100,51,51,103,103,104,104,93,93,70,70,40,40,113,113,114,114,81,81,27,27,10,10,119,119,125,125,20,20,129,129,37,37,133,133,135,135,137,137,136,136,138,138,123,123,145,145,146,146,150,150,152,152,153,153,151,151,22,22,130,130,126,126,120,120,166,166,101,101,99,99,172,172,171,171,176,176,175,175,55,55,181,181,82,82,147,147,134,134,38,38,191,191,73,73,195,195,84,84,196,196,192,192,203,203,157,157,193,193,174,174,149,149,185,185,75,75],"right_children":[2,10,4,8,6,54,12,18,38,16,124,88,14,20,40,42,-1,22,62,32,130,24,160,26,28,30,60,122,36,-1,-1,58,34,-1,-1,-1,-1,134,192,44,114,50,100,46,48,-1,-1,-1,-1,52,-1,104,84,82,56,182,-1,-1,-1,-1,-1,74,64,70,66,78,68,-1,-1,72,112,-1,-1,196,76,218,80,-1,-1,-1,-1,120,186,86,200,-1,-1,90,-1,92,94,98,-1,110,96,-1,-1,-1,-1,172,102,170,-1,106,108,-1,-1,-1,-1,-1,-1,-1,-1,116,118,-1,-1,-1,-1,126,166,-1,-1,146,-1,128,164,-1,-1,132,162,-1,-1,136,190,138,142,140,144,-1,-1,-1,-1,-1,-1,148,150,188,-1,214,152,158,154,156,-1,-1,-1,208,-1,-1,-1,-1,-1,-1,-1,-1,168,-1,-1,-1,-1,176,174,-1,212,180,178,-1,-1,-1,-1,184,-1,-1,-1,216,-1,-1,-1,-1,-1,194,204,210,-1,198,202,-1,-1,-1,-1,-1,-1,206,-1,-1,-1,-1,-1,-1,-1,-1,-1,-1,-1,-1,-1,-1,-1],"split_conditions":[9.193846E-1,1E0,8E1,4.3E1,5.99E3,1.1240317E0,1E0,1.0615951E0,1E0,1E0,8.1E1,2.2387096E-1,1E0,2.6E1,1E0,1.86E2,4.240174E-1,1.0502156E0,2.3E1,2.4E1,1.0902E4,4.9E1,1.00555554E-1,1.0008041E0,1.0101928E0,1E0,1.0211765E0,1.03641805E-5,2.2E1,-9.050026E-2,3.930595E-1,1E0,4.9E1,-0E0,6.451745E-1,3.164017E-1,-1.08928636E-1,6E1,1E0,2.28E2,1.0865844E0,1.77E2,7.6E1,1.0411428E0,6.4E1,-8.354416E-2,3.768192E-1,-9.959455E-2,1.744028E-1,8.493976E-1,3.0275583E-1,2.8E3,2E4,1E0,9.28E2,5.254E3,4.5854422E-1,3.276481E-2,2.4465524E-1,5.367577E-1,1.1128159E-1,2.1E1,1.4727272E-1,1.093505E0,2.2758307E-1,1.1323314E0,1.0873916E0,-1.956585E-1,1.7849517E-1,1E0,1.0955789E0,4.5252483E-2,-2.9388827E-1,1.1018E4,1.083251E0,2.5E-1,1.237E4,4.587241E-1,1.3923515E-1,-1.0275215E-1,1.8912593E-1,1E0,4.6E3,2.7E1,7.2E1,2.9017487E-1,-3.754281E-2,1.08E2,2.772698E-1,1.04E2,7E1,7.2E1,4.414248E-1,2.4E1,1.0724876E-5,4.251422E-1,-2.4447417E-1,-1.9083838E-1,2.0819293E-1,1.9749E4,1.0408387E1,1E0,3.4248507E-1,2.152E3,6.3415205E-1,-1.5160255E-1,2.4619968E-1,-1.9469362E-1,-8.248001E-2,-1.70004E-1,2.5565337E-2,4.234869E-1,1.2349676E-1,6.3E1,5.1E1,-1.4145751E-1,4.913648E-3,4.8024707E-2,-1.1475306E-1,1.012356E0,1.0944934E0,1.7638597E-1,6.639927E-2,2.9856116E-2,1.0908552E-1,1.2545458E-5,5.4E-2,-2.5537404E-1,5.646016E-2,2.09E3,3.83887E-6,-8.236013E-2,2.474011E-1,2.1775E4,1E0,1.1146209E0,2.3346E4,9.45E3,4.6E1,-1.0320933E-1,4.4087008E-2,4.9109674E-1,-0E0,4.1449356E-1,6.366646E-2,6.440678E-1,5.789958E-1,4.9E1,-2.3638844E-1,7.2E1,8.293366E-6,7.880833E0,1.188E3,8.51626E-6,-2.5216657E-1,2.253077E-1,-1.02987126E-1,3.2E1,5.3211164E-2,-3.247126E-1,-0E0,4.1172896E-2,-2.3735242E-1,-0E0,-2.2367185E-1,-2.4677478E-1,1E0,1.5885401E-1,-2.2926722E-1,5.218657E-2,-2.3578131E-1,8.4E1,2.599E4,2.3076758E-1,5.5887776E-6,6.6E3,7.641921E-2,-2.3809537E-1,1.4305407E-1,-1.13534294E-1,-2.145216E-1,3.8294117E0,-2.6501027E-1,-1.0978612E-1,2.5528234E-1,4.392E3,-1.02636576E-1,-0E0,2.6457927E-1,5.5242416E-2,4.1250548E-1,1.4018692E-1,1.4824797E-1,8.42701E-6,-2.4155937E-1,7.244E3,9.6E1,4.0404534E-1,6.963961E-2,6.946419E-2,4.5905834E-1,3.7973246E-1,1.1757796E-1,7.0357144E-2,-0E0,-4.280444E-2,-2.5336587E-1,-7.822536E-2,-2.2241993E-1,-0E0,2.414282E-1,-2.3287442E-1,-0E0,-2.4954325E-1,-9.223652E-2,3.9751176E-2,2.6453087E-1,2.8025326E-1,5.4976237E-1],"split_indices":[11,9,12,1,2,11,11,11,9,7,1,6,9,0,8,12,0,11,1,0,3,5,13,11,11,7,11,10,1,0,0,7,5,0,0,0,0,12,8,12,11,12,1,11,1,0,0,0,0,11,0,3,3,7,12,2,0,0,0,0,0,12,13,11,13,11,11,0,0,9,11,0,0,3,11,13,2,0,0,0,0,8,2,5,5,0,0,12,0,12,1,5,0,0,10,0,0,0,0,3,14,8,0,3,11,0,0,0,0,0,0,0,0,1,1,0,0,0,0,11,11,0,0,6,0,10,6,0,0,12,10,0,0,3,8,11,3,2,1,0,0,0,0,0,0,11,11,5,0,5,10,14,12,10,0,0,0,1,0,0,0,0,0,0,0,0,9,0,0,0,0,5,2,0,10,3,6,0,0,0,0,14,0,0,0,3,0,0,0,0,0,6,6,10,0,3,5,0,0,0,0,0,0,6,0,0,0,0,0,0,0,0,0,0,0,0,0,0,0],"split_type":[0,0,0,0,0,0,0,0,0,0,0,0,0,0,0,0,0,0,0,0,0,0,0,0,0,0,0,0,0,0,0,0,0,0,0,0,0,0,0,0,0,0,0,0,0,0,0,0,0,0,0,0,0,0,0,0,0,0,0,0,0,0,0,0,0,0,0,0,0,0,0,0,0,0,0,0,0,0,0,0,0,0,0,0,0,0,0,0,0,0,0,0,0,0,0,0,0,0,0,0,0,0,0,0,0,0,0,0,0,0,0,0,0,0,0,0,0,0,0,0,0,0,0,0,0,0,0,0,0,0,0,0,0,0,0,0,0,0,0,0,0,0,0,0,0,0,0,0,0,0,0,0,0,0,0,0,0,0,0,0,0,0,0,0,0,0,0,0,0,0,0,0,0,0,0,0,0,0,0,0,0,0,0,0,0,0,0,0,0,0,0,0,0,0,0,0,0,0,0,0,0,0,0,0,0,0,0,0,0,0,0,0,0,0,0,0,0,0,0],"sum_hessian":[9.495686E2,3.0182285E2,6.477457E2,2.6877536E2,3.789704E2,5.5678387E1,3.23292E2,2.1530539E2,5.346997E1,1.6911078E2,1.3271208E2,4.813435E1,2.7515765E2,1.6557251E2,1.09585144E2,1.6771739E2,1.3933822E0,1.1020838E2,1.0509701E2,1.505078E2,1.5064706E1,1.0675185E2,3.4565384E0,3.0769115E1,7.598273E1,2.4486298E1,6.2828183E0,6.5010826E1,1.0971902E1,2.312479E1,1.361508E0,1.4716115E2,3.3466573E0,1.5336308E0,1.8130264E0,1.9686254E0,9.003277E0,4.0071983E1,1.3397985E1,3.113751E1,7.844763E1,8.782218E1,7.989522E1,7.951006E0,2.3186504E1,3.1051497E0,4.845856E0,1.6624947E1,6.561558E0,8.600679E1,1.8153905E0,5.9774933E1,2.6231855E1,5.075798E1,4.920409E0,3.595469E0,1.3249401E0,1.4188892E2,5.2722206E0,1.6057014E0,4.677117E0,3.1205824E1,7.389119E1,5.474649E1,1.91447E1,1.1096986E1,8.047712E0,2.1054409E0,5.9422717E0,2.0263464E1,3.4483025E1,1.8114435E1,2.1490278E0,1.829328E1,1.2912543E1,3.0161593E0,9.896384E0,7.2111473E0,3.8858385E0,5.4979243E0,4.3984594E0,4.7456448E1,3.3015301E0,2.4083065E1,2.1487916E0,1.748293E0,2.2334772E1,4.7111855E1,1.0224969E0,5.1184096E0,4.1993443E1,4.0253563E0,1.0930531E0,3.9383144E1,2.6102974E0,1.4237914E0,1.186506E0,2.5243466E0,1.5010097E0,7.556108E1,4.334136E0,3.1127198E0,1.221416E0,5.2452126E0,5.452972E1,2.516386E0,2.7288265E0,1.9031332E1,3.549839E1,3.586658E1,3.5165646E0,1.838061E0,3.2644962E1,5.431946E1,2.4128168E1,4.2455727E1,1.1863734E1,1.4587751E1,9.540417E0,2.324052E1,2.4215929E1,4.8942535E1,1.6068289E1,1.3146526E2,1.2468271E0,1.1099712E1,1.2140808E1,3.3011153E0,7.7985964E0,7.424682E0,7.640024E0,5.891923E0,1.5327592E0,3.718779E1,2.8841937E0,3.4835995E1,2.3517952E0,2.7929295E1,6.906701E0,1.1333162E1,1.6596132E1,1.19753E0,1.154265E0,1.6353906E0,5.2713103E0,5.573413E0,1.2589184E2,3.1578193E0,2.4155939E0,3.5472282E1,9.0419556E1,4.7698204E1,4.2721355E1,3.66844E1,6.036954E0,1.246019E0,3.543838E1,4.6466705E1,1.2314961E0,2.3424463E0,1.1140921E0,1.1738267E0,6.4661975E0,2.5308013E0,9.610006E0,2.1330307E1,2.8856218E0,1.2274005E0,1.6582212E0,1.4602804E0,1.6524395E0,7.097019E1,4.59089E0,1.5877213E0,3.0031688E0,6.586524E1,5.1049533E0,2.1951172E0,2.909836E0,2.57451E1,4.012014E1,2.4178793E0,1.1775894E0,1.3991201E0,1.0187594E0,2.1233542E0,1.1781759E0,1.6906394E0,1.46718E0,1.5280724E0,1.3561213E0,4.175555E0,9.22243E0,2.5353436E0,1.6402116E0,6.868291E0,1.1424989E1,2.6733959E0,4.1948953E0,1.1085532E0,1.0402384E0,9.931712E0,1.4932773E0,7.442934E0,1.7794963E0,2.141723E0,5.3012114E0,3.505367E0,4.2961338E1,1.3616962E0,1.1736474E0,1.9820163E0,1.0211525E0,3.3803963E1,1.6683211E0,1.0886167E0,1.0347375E0,1.6310793E0,1.38508E0],"tree_param":{"num_deleted":"0","num_feature":"15","num_nodes":"219","size_leaf_vector":"1"}},{"base_weights":[-1.0538899E-1,-5.331826E-1,6.909954E-2,4.1079915E-1,-8.060801E-2,-3.5866028E-1,4.9331125E-2,-1.0078263E-1,-6.022096E-1,4.8249248E-1,-1.2161279E-1,-3.8512954E-1,-7.281423E-1,1.835356E-2,8.4366757E-1,-2.3306337E-1,1.3139187E-1,3.74293E-1,8.504076E-1,3.3067402E-1,1.4928033E0,1.6026692E-1,-8.4488326E-1,-1.8422578E-1,-5.685257E-1,-7.376629E-1,1.2433007E-2,1.3991953E-1,3.4742975E-1,-6.399728E-1,-2.6257198E-2,3.600669E-1,-9.929959E-1,1.2943549E0,-4.7310967E-2,4.2172655E-1,-2.6057023E-1,1.3745262E-1,1.9185549E-2,-3.696725E-1,2.0381486E-1,1.1951096E-1,-2.593586E-1,8.036161E-3,-1.1926467E-1,4.2104068E-1,-1.4557213E-1,2.494273E-1,-1.1562169E-1,-2.4616727E-1,2.9355133E-1,4.8655954E-1,-1.6375363E-1,-4.195792E-1,2.2660978E-1,5.7560885E-1,-6.4083236E-1,-9.9996984E-2,2.1054251E-1,-9.191721E-1,-9.356794E-2,-2.618536E-1,1.9461969E-1,1.2678345E-1,-8.239136E-2,-8.285627E-2,1.18959345E-1,1.8669666E-1,1.3640192E0,4.28104E-1,2.4795626E-1,-0E0,3.9808953E-1,-1.20894186E-1,1.7193888E-1,-2.795925E-1,-7.487176E-1,-8.593859E-1,7.383316E-2,5.654019E-1,-5.0608045E-1,-4.527103E-2,2.8764644E-1,-8.1902266E-1,1.6845338E-1,-2.213138E-1,3.3231047E-1,9.201823E-1,-2.5557E-1,7.514377E-1,1.7264199E0,6.372862E-1,4.225019E-1,1.9170268E-1,-0E0,5.3298636E-4,1.08946286E-1,-2.3091793E-1,-1.0852423E0,-4.4025013E-1,2.8550416E-1,2.4303126E-1,-6.765672E-1,-6.3138056E-1,-0E0,-2.3295282E-1,3.6942574E-1,-7.441598E-1,1.5781496E-1,7.539755E-1,-1.5614977E-1,7.3078144E-3,4.6709603E-1,-3.363867E-1,3.413093E-1,3.374066E-1,-1.3885768E-1,-5.731052E-1,3.584616E-1,1.2149376E0,-1.6213118E-1,-7.39342E-2,-2.6197314E-1,-2.6202384E-1,5.5973195E-2,2.328889E-2,-1.5978044E-1,1.0209989E-1,-8.535549E-1,-5.794673E-1,-8.78509E-1,-8.7532574E-1,-4.0045682E-1,1.5635446E-1,-4.77803E-1,-1.0273091E0,-1.8789998E-1,3.210395E-1,-9.532158E-2,-9.657729E-1,6.319188E-2,-2.453648E-1,1.8560605E-1,3.19354E-1,-2.3891876E-2,-2.2215803E-1,1.2807882E-2,-5.3311926E-1,-9.6672064E-1,-5.727455E-1,1.7991619E-1,-6.374331E-1,5.8205664E-2,-1.1067533E-1,4.0965635E-1,-1.7271481E-1,-6.6266626E-2,-1.3700107E-1,9.0903497E-1,-0E0,4.881839E-1,-2.2028208E-1,1.8696728E-1,-1.0758303E0,-0E0,1.4229962E-1,-2.7118012E-1,-3.6797273E-1,2.7670655E-1,-1.0795922E0,-0E0,-9.6872604E-1,-5.01968E-1,3.6214396E-1,-7.782467E-1,-9.987033E-1,-0E0,3.0485874E-1,-2.2391814E-1,-0E0,-1.0015155E0,-1.4947881E-1,-1.036099E0,-2.454997E-1,3.7843838E-1,8.3359174E-2,-2.6075682E-1,-1.971707E-1,1.3416267E-2,-4.1372374E-2,-2.5173107E-1,-0E0,3.0537686E-1,4.9606562E-1,9.7898775E-1,2.8163555E-1,4.363395E-1,2.2080848E-1,-7.415859E-2,-4.3162894E-1,-2.508649E-1,-2.3529059E-1,-0E0,-2.5987482E-1,-8.843387E-2,-0E0,-2.574412E-1,-4.8486853E-1,-1.0524675E0,-2.296993E-1,4.7266404E-3,-2.5113553E-1,-0E0,-0E0,-2.6123527E-1,-2.6800665E-1,-7.4740974E-3,4.0008217E-1,1.404061E-1,-2.4699147E-1,-2.5433782E-2,-3.3663876E-2,-3.119024E-1,-2.399625E-1,-3.5595614E-2,-1.5382574E-1,-0E0,2.2902915E-1,4.3605563E-1,1.24459185E-1,3.884198E-1,-2.6826996E-1,-5.906091E-1,-0E0,-2.1252714E-1],"categories":[],"categories_nodes":[],"categories_segments":[],"categories_sizes":[],"default_left":[0,0,0,0,0,0,0,0,0,0,0,0,0,0,0,0,0,0,0,0,0,0,0,0,0,0,0,0,0,0,0,0,0,0,0,0,0,0,0,0,0,0,0,0,0,0,0,0,0,0,0,0,0,0,0,0,0,0,0,0,0,0,0,0,0,0,0,0,0,0,0,0,0,0,0,0,0,0,0,0,0,0,0,0,0,0,0,0,0,0,0,0,0,0,0,0,0,0,0,0,0,0,0,0,0,0,0,0,0,0,0,0,0,0,0,0,0,0,0,0,0,0,0,0,0,0,0,0,0,0,0,0,0,0,0,0,0,0,0,0,0,0,0,0,0,0,0,0,0,0,0,0,0,0,0,0,0,0,0,0,0,0,0,0,0,0,0,0,0,0,0,0,0,0,0,0,0,0,0,0,0,0,0,0,0,0,0,0,0,0,0,0,0,0,0,0,0,0,0,0,0,0,0,0,0,0,0,0,0,0,0,0,0,0,0,0,0,0,0,0,0,0,0,0,0,0,0,0,0,0,0,0,0,0,0],"id":4,"left_children":[1,11,3,9,5,7,13,25,75,17,113,23,107,15,67,35,21,19,87,31,217,27,123,29,103,181,33,37,-1,97,51,45,221,111,49,-1,39,-1,-1,43,41,-1,-1,-1,-1,95,47,-1,-1,65,63,69,53,59,55,57,61,-1,-1,203,125,-1,-1,-1,-1,-1,-1,109,193,-1,71,73,-1,-1,-1,77,83,163,79,81,145,-1,-1,127,85,-1,-1,89,225,91,227,93,-1,-1,-1,-1,-1,99,231,101,-1,-1,189,147,105,-1,157,129,-1,191,-1,-1,-1,117,115,-1,165,121,119,229,-1,141,-1,-1,-1,-1,-1,-1,187,131,171,139,133,-1,135,211,137,-1,-1,199,-1,-1,143,-1,-1,-1,-1,149,169,151,-1,155,153,-1,-1,-1,-1,161,159,-1,-1,-1,-1,215,-1,167,-1,185,-1,205,-1,179,173,-1,175,219,177,-1,-1,-1,207,183,213,-1,-1,-1,-1,-1,-1,-1,-1,-1,-1,-1,195,197,-1,-1,-1,201,-1,-1,-1,-1,-1,-1,-1,209,223,-1,-1,-1,-1,-1,-1,-1,-1,-1,-1,-1,-1,-1,-1,-1,-1,-1,-1,-1,-1,-1,-1,-1,233,-1,-1],"loss_changes":[6.815008E1,7.342087E0,3.3178356E1,7.6373177E0,1.631362E1,8.843266E0,7.29315E0,5.2612934E0,3.1999454E0,6.6293907E0,2.287542E0,5.3695393E0,2.6151733E0,8.340351E0,3.4063091E0,4.8570423E0,5.566512E0,6.1315136E0,3.1935043E0,4.916355E0,6.1343575E-1,5.178292E0,2.24653E0,5.0655203E0,2.6702614E0,1.6143808E0,4.873457E0,4.8410187E0,0E0,2.9898944E0,3.7567432E0,4.0174026E0,4.91266E-1,2.2924085E0,3.819745E0,0E0,4.580909E0,0E0,0E0,4.979409E0,7.318637E0,0E0,0E0,0E0,0E0,3.0543327E0,6.0828576E0,0E0,0E0,3.46377E0,3.7375464E0,3.222181E0,4.3808346E0,4.0673122E0,5.057995E0,4.688171E0,3.7638872E0,0E0,0E0,8.895016E-1,2.1760097E0,0E0,0E0,0E0,0E0,0E0,0E0,2.60245E0,1.1360912E0,0E0,4.0671606E0,3.3673172E0,0E0,0E0,0E0,5.017328E0,3.3891163E0,1.7837806E0,4.0950665E0,4.7092533E0,1.9818205E0,0E0,0E0,2.1584606E0,5.155076E0,0E0,0E0,4.3876705E0,3.565434E-1,3.3517952E0,1.8518066E-1,4.085623E0,0E0,0E0,0E0,0E0,0E0,2.8910496E0,1.0969162E-2,3.0705934E0,0E0,0E0,1.3736913E0,1.919672E0,3.2612076E0,0E0,1.8007247E0,2.103077E0,0E0,1.2413868E0,0E0,0E0,0E0,2.7063813E0,4.234017E0,0E0,1.7116268E0,3.349708E0,3.6690474E0,1.7784691E-1,0E0,2.0843215E0,0E0,0E0,0E0,0E0,0E0,0E0,1.3994675E0,2.3847542E0,1.6861267E0,2.1481857E0,2.7104583E0,0E0,4.560247E0,7.200403E-1,7.622242E0,0E0,0E0,1.0672512E0,0E0,0E0,2.2866955E0,0E0,0E0,0E0,0E0,2.8497353E0,1.6896744E0,2.335085E0,0E0,1.9737949E0,4.866471E0,0E0,0E0,0E0,0E0,2.3262E0,3.3137836E0,0E0,0E0,0E0,0E0,6.258249E-1,0E0,2.2203817E0,0E0,1.5506126E0,0E0,8.4740925E-1,0E0,1.6185036E0,7.0209203E0,0E0,1.9921722E0,4.9812984E-1,3.2316465E0,0E0,0E0,0E0,8.373833E-1,6.815566E0,6.5532446E-1,0E0,0E0,0E0,0E0,0E0,0E0,0E0,0E0,0E0,0E0,0E0,2.3664699E0,1.3379189E0,0E0,0E0,0E0,1.1315615E0,0E0,0E0,0E0,0E0,0E0,0E0,0E0,1.5516801E0,4.705696E-1,0E0,0E0,0E0,0E0,0E0,0E0,0E0,0E0,0E0,0E0,0E0,0E0,0E0,0E0,0E0,0E0,0E0,0E0,0E0,0E0,0E0,0E0,0E0,2.1383005E-1,0E0,0E0],"parents":[2147483647,0,0,2,2,4,4,5,5,3,3,1,1,6,6,13,13,9,9,17,17,16,16,11,11,7,7,21,21,23,23,19,19,26,26,15,15,27,27,36,36,40,40,39,39,31,31,46,46,34,34,30,30,52,52,54,54,55,55,53,53,56,56,50,50,49,49,14,14,51,51,70,70,71,71,8,8,75,75,78,78,79,79,76,76,84,84,18,18,87,87,89,89,91,91,45,45,29,29,97,97,99,99,24,24,104,104,12,12,67,67,33,33,10,10,114,114,113,113,118,118,117,117,22,22,60,60,83,83,107,107,129,129,132,132,134,134,136,136,131,131,121,121,142,142,80,80,103,103,147,147,149,149,152,152,151,151,106,106,158,158,157,157,77,77,116,116,165,165,148,148,130,130,172,172,174,174,176,176,171,171,25,25,181,181,167,167,128,128,102,102,109,109,68,68,194,194,195,195,139,139,199,199,59,59,169,169,180,180,207,207,135,135,182,182,163,163,20,20,175,175,32,32,208,208,88,88,90,90,119,119,98,98,232,232],"right_children":[2,12,4,10,6,8,14,26,76,18,114,24,108,16,68,36,22,20,88,32,218,28,124,30,104,182,34,38,-1,98,52,46,222,112,50,-1,40,-1,-1,44,42,-1,-1,-1,-1,96,48,-1,-1,66,64,70,54,60,56,58,62,-1,-1,204,126,-1,-1,-1,-1,-1,-1,110,194,-1,72,74,-1,-1,-1,78,84,164,80,82,146,-1,-1,128,86,-1,-1,90,226,92,228,94,-1,-1,-1,-1,-1,100,232,102,-1,-1,190,148,106,-1,158,130,-1,192,-1,-1,-1,118,116,-1,166,122,120,230,-1,142,-1,-1,-1,-1,-1,-1,188,132,172,140,134,-1,136,212,138,-1,-1,200,-1,-1,144,-1,-1,-1,-1,150,170,152,-1,156,154,-1,-1,-1,-1,162,160,-1,-1,-1,-1,216,-1,168,-1,186,-1,206,-1,180,174,-1,176,220,178,-1,-1,-1,208,184,214,-1,-1,-1,-1,-1,-1,-1,-1,-1,-1,-1,196,198,-1,-1,-1,202,-1,-1,-1,-1,-1,-1,-1,210,224,-1,-1,-1,-1,-1,-1,-1,-1,-1,-1,-1,-1,-1,-1,-1,-1,-1,-1,-1,-1,-1,-1,-1,234,-1,-1],"split_conditions":[9.072149E-1,1E0,4.3E1,1E0,4.9E1,1E0,1E0,7.0357144E-2,4.4491228E-1,1.7988E4,1.1004982E0,3.5135135E-1,8.1E1,7.882353E-2,4.3E1,5.2E-2,3.709091E0,1E0,2.5083333E-1,6E1,1.6125425E-5,2.5083333E-1,8.4E1,2.0294573E0,7E1,4.45E3,6.232758E-6,2.871441E0,3.4742975E-1,5.2380953E-2,2.484706E0,1.5876E4,1.0715265E0,3.7714286E0,5.4E1,4.2172655E-1,1.1240317E0,1.3745262E-1,1.9185549E-2,4.44E-6,1.27E4,1.1951096E-1,-2.593586E-1,8.036161E-3,-1.1926467E-1,6.850443E-6,2.3E1,2.494273E-1,-1.1562169E-1,1.1117829E0,1.01E4,3.9130434E-1,1.25E-1,4.3E1,7.0530767E0,8.5E3,2E-1,-9.9996984E-2,2.1054251E-1,1.4514514E-5,1.32E4,-2.618536E-1,1.9461969E-1,1.2678345E-1,-8.239136E-2,-8.285627E-2,1.18959345E-1,3.8E1,1.0633E4,4.28104E-1,2.4434042E0,8.4585744E-1,3.9808953E-1,-1.20894186E-1,1.7193888E-1,1.880597E-1,4.242857E0,1.078871E0,1.0546737E-5,6.319074E-6,1.89E2,-4.527103E-2,2.8764644E-1,9.193846E-1,1.14E1,-2.213138E-1,3.3231047E-1,9.0140275E-6,6.694286E0,2.7676E4,1.9749E4,4.6846156E0,4.225019E-1,1.9170268E-1,-0E0,5.3298636E-4,1.08946286E-1,4.98E-2,7.8125E-2,4.834E3,2.8550416E-1,2.4303126E-1,3.7E1,1.3916667E-1,4.6902654E-1,-2.3295282E-1,1.6703952E-5,1.296E4,1.5781496E-1,1.2234E4,-1.5614977E-1,7.3078144E-3,4.6709603E-1,1.4824797E-1,3E1,3.374066E-1,1.673E4,9.52381E-2,1.8923077E-1,1.0008041E0,-1.6213118E-1,6.6E-2,-2.6197314E-1,-2.6202384E-1,5.5973195E-2,2.328889E-2,-1.5978044E-1,1.0209989E-1,2.599E4,5.047E3,1.4142857E-1,1.696E3,5.257353E-1,1.5635446E-1,5.88E-2,1.2495E4,2.7515724E0,3.210395E-1,-9.532158E-2,5.48E3,6.319188E-2,-2.453648E-1,3.3E1,3.19354E-1,-2.3891876E-2,-2.2215803E-1,1.2807882E-2,1.3538462E-1,2.2962964E-1,8.8E-1,1.7991619E-1,1.9E1,1.879E4,-1.1067533E-1,4.0965635E-1,-1.7271481E-1,-6.6266626E-2,7.2E1,8.35E3,-0E0,4.881839E-1,-2.2028208E-1,1.8696728E-1,6.2E1,-0E0,1.249E4,-2.7118012E-1,7.5E3,2.7670655E-1,4.2028984E-1,-0E0,1.3670236E0,1.4342949E-1,3.6214396E-1,8.3388704E-1,7.2E1,4.9E1,3.0485874E-1,-2.2391814E-1,-0E0,3.4E1,4E3,9.704449E-1,-2.454997E-1,3.7843838E-1,8.3359174E-2,-2.6075682E-1,-1.971707E-1,1.3416267E-2,-4.1372374E-2,-2.5173107E-1,-0E0,3.0537686E-1,4.9606562E-1,1.2322581E-1,4.862369E-6,4.363395E-1,2.2080848E-1,-7.415859E-2,4.2E1,-2.508649E-1,-2.3529059E-1,-0E0,-2.5987482E-1,-8.843387E-2,-0E0,-2.574412E-1,1.5313E4,2.4245E4,-2.296993E-1,4.7266404E-3,-2.5113553E-1,-0E0,-0E0,-2.6123527E-1,-2.6800665E-1,-7.4740974E-3,4.0008217E-1,1.404061E-1,-2.4699147E-1,-2.5433782E-2,-3.3663876E-2,-3.119024E-1,-2.399625E-1,-3.5595614E-2,-1.5382574E-1,-0E0,2.2902915E-1,4.3605563E-1,1.24459185E-1,3.884198E-1,-2.6826996E-1,1.86E0,-0E0,-2.1252714E-1],"split_indices":[11,9,12,9,5,8,7,6,13,3,11,13,1,6,1,13,13,7,6,1,10,6,5,14,1,2,10,14,0,6,14,3,11,14,1,0,11,0,0,10,3,0,0,0,0,10,1,0,0,11,2,11,6,12,14,3,6,0,0,10,2,0,0,0,0,0,0,1,3,0,14,11,0,0,0,13,13,11,10,10,12,0,0,11,14,0,0,10,14,3,3,14,0,0,0,0,0,6,6,2,0,0,1,6,11,0,10,2,0,2,0,0,0,6,1,0,2,6,6,11,0,6,0,0,0,0,0,0,2,3,6,12,11,0,6,2,14,0,0,2,0,0,1,0,0,0,0,6,6,11,0,0,2,0,0,0,0,5,2,0,0,0,0,1,0,2,0,2,0,11,0,14,6,0,11,5,5,0,0,0,1,2,11,0,0,0,0,0,0,0,0,0,0,0,6,10,0,0,0,1,0,0,0,0,0,0,0,3,3,0,0,0,0,0,0,0,0,0,0,0,0,0,0,0,0,0,0,0,0,0,0,0,14,0,0],"split_type":[0,0,0,0,0,0,0,0,0,0,0,0,0,0,0,0,0,0,0,0,0,0,0,0,0,0,0,0,0,0,0,0,0,0,0,0,0,0,0,0,0,0,0,0,0,0,0,0,0,0,0,0,0,0,0,0,0,0,0,0,0,0,0,0,0,0,0,0,0,0,0,0,0,0,0,0,0,0,0,0,0,0,0,0,0,0,0,0,0,0,0,0,0,0,0,0,0,0,0,0,0,0,0,0,0,0,0,0,0,0,0,0,0,0,0,0,0,0,0,0,0,0,0,0,0,0,0,0,0,0,0,0,0,0,0,0,0,0,0,0,0,0,0,0,0,0,0,0,0,0,0,0,0,0,0,0,0,0,0,0,0,0,0,0,0,0,0,0,0,0,0,0,0,0,0,0,0,0,0,0,0,0,0,0,0,0,0,0,0,0,0,0,0,0,0,0,0,0,0,0,0,0,0,0,0,0,0,0,0,0,0,0,0,0,0,0,0,0,0,0,0,0,0,0,0,0,0,0,0,0,0,0,0,0,0],"sum_hessian":[9.113598E2,2.6446576E2,6.4689404E2,1.9760847E2,4.4928558E2,1.4373125E2,3.0555432E2,7.0334625E1,7.339662E1,1.7459009E2,2.3018393E1,1.5108029E2,1.1338546E2,2.9440375E2,1.1150585E1,9.059313E1,2.038106E2,1.3546495E2,3.912513E1,1.3060707E2,4.8578753E0,1.9821696E2,5.5936356E0,7.278065E1,7.829964E1,1.0963717E1,5.937091E1,1.9555135E2,2.6656196E0,1.8306297E1,5.4474354E1,1.2796408E2,2.6429954E0,2.83765E0,5.653326E1,1.0377433E0,8.955539E1,1.9501177E1,1.7605017E2,7.2974434E1,1.6580956E1,1.3499654E1,3.0813022E0,2.0534857E1,5.2439575E1,1.1465563E2,1.3308454E1,2.8680034E0,1.0440451E1,3.618883E1,2.0344429E1,1.1114635E1,4.335972E1,2.659845E1,1.6761267E1,1.2167786E1,4.5934815E0,3.0192232E0,9.1485615E0,1.0185347E1,1.6413103E1,3.5284023E0,1.0650792E0,1.467579E1,5.6686387E0,3.1489735E1,4.6990967E0,5.1512575E0,5.999327E0,1.4326888E0,9.681947E0,8.212807E0,1.46914E0,4.988306E0,3.2245007E0,2.3480558E1,4.9916065E1,9.172161E0,1.4308397E1,7.988247E0,6.3201504E0,3.693864E0,4.2943826E0,4.662726E1,3.2888074E0,1.6449026E0,1.6439048E0,3.702596E1,2.0991719E0,3.0887964E1,6.137994E0,2.8283768E1,2.6041965E0,2.1176596E1,7.1071725E0,1.6214281E1,9.8441345E1,9.848327E0,8.457971E0,8.800987E0,1.0473402E0,1.0303265E0,7.7706604E0,7.018411E1,8.11553E0,2.2669032E0,5.848627E0,1.1231401E2,1.0714483E0,3.319595E0,1.8316627E0,1.2246253E0,1.6130247E0,1.6109715E1,6.9086785E0,2.1707356E0,4.737943E0,1.2297098E1,3.8126154E0,2.2643301E0,1.5482851E0,6.9452534E0,5.3518453E0,4.4908075E0,1.1028277E0,1.2131076E1,4.2820277E0,1.0288122E0,4.5598446E1,5.1336548E1,6.0977463E1,1.8799557E1,3.253699E1,1.9149082E0,3.0622082E1,1.0263088E1,2.0358994E1,2.4657702E0,1.7893223E1,1.7647305E1,1.1522523E0,1.6078696E0,5.3373837E0,1.1862096E0,4.151174E0,3.63607E0,2.6840806E0,5.4884983E1,1.5299125E1,5.3496758E1,1.3882262E0,4.8898148E1,4.5986104E0,3.3937447E0,1.2048656E0,3.4468246E1,1.4429901E1,2.767443E0,3.0811841E0,1.8533692E0,1.227815E0,1.6222525E0,1.1451905E0,7.3935037E0,1.7786572E0,3.5628934E0,1.1750497E0,2.2682974E0,1.294596E0,1.371678E1,1.5823449E0,4.8629448E1,1.2348017E1,1.3127635E0,1.1035254E1,8.697941E0,2.337312E0,1.0313449E0,1.3059671E0,1.5185887E0,4.711086E1,3.986062E0,6.977656E0,2.7252133E0,1.2608486E0,1.0069587E0,1.2613388E0,4.4500008E1,1.0984378E0,3.9906561E0,3.7800045E0,1.6438438E0,1.6757514E0,1.6500609E0,4.349266E0,2.6908774E0,1.6583886E0,1.4488211E0,1.2420564E0,4.3767357E0,1.3270568E1,1.7565585E0,2.6201773E0,6.6118317E0,3.5735154E0,1.0226358E0,1.2694144E1,4.6910753E0,4.2419785E1,2.5125256E0,2.1785495E0,9.153108E0,1.1099812E0,1.0125815E0,5.9650745E0,6.388418E0,1.0050853E0,3.3902466E0,1.4676287E0,7.502184E0,1.1957575E0,1.0648363E0,1.5781591E0,4.1161972E1,1.2578126E0,1.0415791E0,1.0575927E0,1.7697685E0,4.3682256E0,1.2247546E0,1.0395756E0,6.4342194E0,2.0237513E0,1.006828E0,1.0169234E0],"tree_param":{"num_deleted":"0","num_feature":"15","num_nodes":"235","size_leaf_vector":"1"}},{"base_weights":[-9.1234304E-2,-4.7119737E-1,5.2084535E-2,1.9788425E-1,-1.8710911E-1,1.17874846E-1,5.106492E-1,3.1648776E-1,-8.541595E-3,1.1513349E-1,-2.923786E-1,-2.4952133E-1,2.4221797E-1,7.906807E-1,-4.499656E-1,-4.1990322E-1,1.1145852E0,-2.9110548E-1,4.44046E-1,-3.342797E-1,-6.613654E-1,3.5764194E-1,-8.756479E-1,-3.9894292E-1,-2.6219655E-2,8.823636E-2,4.0093997E-1,2.3531382E-1,-2.7528793E-1,-9.436109E-2,2.6231217E-1,3.488217E-2,2.948786E-1,2.682374E-1,7.6314324E-1,1.0157418E0,1.016644E-1,-6.2549555E-1,1.010394E-1,-3.4941643E-1,3.5403556E-1,2.2931765E-1,-1.1710456E-2,3.3998212E-1,-4.627904E-1,-8.6082274E-1,3.4992823E-1,3.1641507E-1,1.3310988E0,-8.7733425E-2,4.1586658E-1,1.1793147E-1,-1.7314477E-2,-0E0,8.809418E-1,-3.5379994E-1,2.8277665E-1,1.5797281E0,-0E0,5.020273E-2,-2.6325068E-1,3.1666737E-2,3.3569625E-1,-4.3366823E-1,3.4717005E-1,1.4876419E0,-4.1253453E-1,-1.0351253E0,-2.0616122E-1,-1.8328508E-2,-7.3272616E-1,-1.9121172E-1,2.395523E-2,1.4623252E-1,-6.5571226E-2,-0E0,1.3057655E0,-2.1176219E-1,-5.1865107E-1,-4.5046943E-1,2.1398993E-1,-2.0694646E-1,7.9997174E-2,-1.174488E-1,1.4617044E-1,-3.7560698E-1,8.466636E-3,-5.881776E-1,3.3441257E-1,2.180099E-1,5.179636E-1,9.203694E-2,-2.379382E-1,1.7758025E0,6.788011E-1,-0E0,4.3628234E-1,1.05245605E-1,5.05561E-1,-4.4032714E-1,6.0375065E-1,-8.897055E-2,-1.9781747E-1,-7.7804494E-1,1.5865189E-1,-2.649892E-1,9.135877E-2,1.8668485E-1,-6.522311E-1,-3.1881955E-1,-4.1991707E-2,-9.497143E-2,-2.4581783E-1,5.3947654E-2,1.0054489E0,6.015663E-1,-6.4683485E-1,1.2157873E0,-1.11806676E-1,-4.8794982E-1,-8.106749E-1,-8.087313E-1,-3.1084627E-1,7.838717E-1,-3.9811987E-1,-4.096989E-3,-5.919119E-1,-3.8859615E-1,9.4266933E-1,5.364674E-1,-1.767382E-2,4.0210414E-1,-2.3970656E-1,-1.9652048E-1,3.050744E-1,8.129294E-2,-9.1084814E-1,8.482005E-1,6.477413E-2,6.581465E-1,1.4161136E0,2.487046E0,7.927401E-1,-1.1396102E-1,3.269955E-1,9.9117553E-1,3.0362594E-1,2.8762478E-1,-4.6475027E-2,-7.341456E-2,1.379291E-1,8.692799E-1,-6.309734E-1,5.03173E-1,2.7262034E-2,-9.1849566E-1,-4.0206313E-1,2.1943398E-1,-6.548762E-1,-0E0,-9.594878E-1,-6.784933E-1,-2.2086944E-1,-0E0,-1.8772657E-1,-7.1817815E-1,-2.8025883E-1,-6.3558745E-1,1.6299781E-1,-7.287129E-2,4.3795127E-1,5.008015E-2,-7.7531374E-1,-7.799345E-1,-2.0913503E-1,7.3121476E-1,-3.7387034E-1,-1.5954472E-1,1.8845923E-2,7.3864765E-2,-9.6294063E-1,3.9186424E-1,3.0391926E-1,4.947426E-2,4.6122345E-1,-1.5915444E-1,2.1240635E-1,-2.7638194E-1,-2.5681183E-1,1.5906882E-1,-1.9072223E-1,7.814129E-1,-1.10583104E-1,3.230808E-1,-0E0,-2.3615275E-2,2.9608816E-1,-0E0,-9.55335E-1,-1.5979326E-1,7.230896E-2,-3.586303E-3,-2.2448802E-1,-1.8886374E-1,-3.3803806E-2,-8.8536836E-2,-2.2062768E-1,-0E0,-2.7507848E-1,-5.8744323E-2,-2.4127686E-1,-2.6053143E-1,-0E0,-2.7500257E-1,-0E0,-2.3739457E-1,-6.302073E-1,7.955696E-2,-8.5996205E-1,-2.4208924E-1,-0E0,2.8915742E-1,-0E0,-9.337723E-2,1.4458776E-1,-3.940884E-3,2.274921E-1,-1.6910768E-1,3.4244243E-2,-2.7291265E-1,-1.574529E-2,1.0731403E-1,4.101073E-1,-2.4149102E-1,-0E0,-2.435412E-1,-4.8238775E-3,-0E0,-9.596721E-1,-5.359003E-1,-2.4193148E-1,-2.3320737E-1,3.0042222E-2,4.3506753E-2,2.8174865E-1,3.571656E-1,1.5676826E-1,3.7628174E-1,6.8929195E-1,2.4457334E-1,4.9511075E-2],"categories":[],"categories_nodes":[],"categories_segments":[],"categories_sizes":[],"default_left":[0,0,0,0,0,0,0,0,0,0,0,0,0,0,0,0,0,0,0,0,0,0,0,0,0,0,0,0,0,0,0,0,0,0,0,0,0,0,0,0,0,0,0,0,0,0,0,0,0,0,0,0,0,0,0,0,0,0,0,0,0,0,0,0,0,0,0,0,0,0,0,0,0,0,0,0,0,0,0,0,0,0,0,0,0,0,0,0,0,0,0,0,0,0,0,0,0,0,0,0,0,0,0,0,0,0,0,0,0,0,0,0,0,0,0,0,0,0,0,0,0,0,0,0,0,0,0,0,0,0,0,0,0,0,0,0,0,0,0,0,0,0,0,0,0,0,0,0,0,0,0,0,0,0,0,0,0,0,0,0,0,0,0,0,0,0,0,0,0,0,0,0,0,0,0,0,0,0,0,0,0,0,0,0,0,0,0,0,0,0,0,0,0,0,0,0,0,0,0,0,0,0,0,0,0,0,0,0,0,0,0,0,0,0,0,0,0,0,0,0,0,0,0,0,0,0,0,0,0,0,0,0,0,0,0,0,0,0,0,0,0,0,0,0,0,0,0,0,0,0,0],"id":5,"left_children":[1,19,3,5,11,7,33,21,9,25,67,17,13,15,45,105,75,23,113,55,119,47,207,63,37,27,-1,31,29,-1,-1,-1,-1,35,137,57,43,111,39,83,41,-1,-1,53,107,187,191,49,245,73,51,-1,-1,59,61,77,-1,231,185,-1,-1,-1,-1,79,65,153,227,229,69,71,81,-1,-1,-1,-1,-1,93,85,125,101,-1,-1,-1,-1,-1,99,87,103,89,91,-1,-1,-1,97,95,-1,-1,-1,-1,161,195,-1,-1,201,-1,-1,-1,-1,109,-1,-1,199,-1,115,181,117,211,183,-1,121,155,135,123,249,173,127,165,131,129,-1,-1,133,-1,-1,-1,-1,237,139,151,145,141,247,143,-1,-1,147,149,-1,-1,-1,-1,243,213,-1,-1,197,157,-1,159,223,235,205,163,-1,-1,171,167,209,169,-1,-1,-1,203,179,175,221,177,-1,-1,-1,233,-1,225,-1,-1,-1,-1,-1,189,-1,-1,193,-1,-1,-1,-1,-1,-1,215,-1,-1,-1,-1,-1,-1,-1,-1,-1,-1,-1,-1,-1,-1,-1,-1,-1,217,-1,219,-1,-1,-1,-1,-1,-1,-1,-1,-1,-1,-1,-1,-1,-1,-1,-1,-1,-1,-1,239,241,-1,-1,-1,-1,-1,-1,-1,-1,-1,-1,-1],"loss_changes":[4.7906166E1,6.011444E0,2.221157E1,9.753366E0,6.44596E0,8.021343E0,4.6306763E0,5.9392834E0,6.802233E0,5.529829E0,3.456419E0,6.031231E0,1.1475575E1,6.826435E0,4.4223523E0,2.3646288E0,3.1989326E0,5.571644E0,2.2526035E0,4.159277E0,2.2499695E0,4.380143E0,1.3025782E0,3.6678467E0,4.5806527E0,7.0180693E0,0E0,7.698964E0,7.74831E0,0E0,0E0,0E0,0E0,4.8599243E0,2.0592632E0,4.0707235E0,4.5587773E0,2.3448339E0,5.4373236E0,2.9296458E0,8.695333E0,0E0,0E0,4.2866273E0,2.3637624E0,1.6132598E0,1.610714E0,4.719451E0,1.7176533E-1,3.2988636E0,5.242815E0,0E0,0E0,3.8119555E0,3.7667933E0,3.0709877E0,0E0,6.906862E-1,1.789401E0,0E0,0E0,0E0,0E0,3.0172215E0,5.4131227E0,1.9904318E0,8.229183E-1,7.055502E-1,5.067813E0,4.3549285E0,3.0172133E0,0E0,0E0,0E0,0E0,0E0,2.8162766E0,2.8273203E0,2.2426662E0,2.7042313E0,0E0,0E0,0E0,0E0,0E0,2.751789E0,6.0812793E0,2.7007759E0,4.1194696E0,4.7237635E0,0E0,0E0,0E0,3.3852005E0,4.4281173E0,0E0,0E0,0E0,0E0,1.9389896E0,1.5882986E0,0E0,0E0,1.3997216E0,0E0,0E0,0E0,0E0,2.7162185E0,0E0,0E0,1.4636645E0,0E0,2.71021E0,1.8003578E0,3.0240636E0,1.1211497E0,1.7981634E0,0E0,2.3823662E0,1.986515E0,2.0861378E0,2.8488216E0,1.460731E-2,1.8201313E0,2.9047887E0,1.9128456E0,3.5028067E0,3.9169996E0,0E0,0E0,3.430146E0,0E0,0E0,0E0,0E0,4.4407368E-1,3.1426563E0,2.601809E0,2.723277E0,4.625681E0,1.2174606E-1,4.9192834E0,0E0,0E0,4.8852797E0,2.6396732E0,0E0,0E0,0E0,0E0,2.2015011E-1,9.413798E-1,0E0,0E0,1.4705925E0,3.959661E0,0E0,2.1719527E0,8.424666E-1,5.6084394E-1,1.3258581E0,3.0558581E0,0E0,0E0,2.2290592E0,2.72738E0,1.2205334E0,6.600635E0,0E0,0E0,0E0,1.3345528E0,2.0111127E0,2.963738E0,8.9693403E-1,2.8160217E0,0E0,0E0,0E0,6.2170553E-1,0E0,8.3148634E-1,0E0,0E0,0E0,0E0,0E0,2.1491501E0,0E0,0E0,1.7020066E0,0E0,0E0,0E0,0E0,0E0,0E0,9.3782043E-1,0E0,0E0,0E0,0E0,0E0,0E0,0E0,0E0,0E0,0E0,0E0,0E0,0E0,0E0,0E0,0E0,0E0,2.499804E0,0E0,1.404366E0,0E0,0E0,0E0,0E0,0E0,0E0,0E0,0E0,0E0,0E0,0E0,0E0,0E0,0E0,0E0,0E0,0E0,0E0,0E0,3.0885696E-1,1.4779638E0,0E0,0E0,0E0,0E0,0E0,0E0,0E0,0E0,0E0,0E0,0E0],"parents":[2147483647,0,0,2,2,3,3,5,5,8,8,4,4,12,12,13,13,11,11,1,1,7,7,17,17,9,9,25,25,28,28,27,27,6,6,33,33,24,24,38,38,40,40,36,36,14,14,21,21,47,47,50,50,43,43,19,19,35,35,53,53,54,54,23,23,64,64,10,10,68,68,69,69,49,49,16,16,55,55,63,63,70,70,39,39,77,77,86,86,88,88,89,89,76,76,94,94,93,93,85,85,79,79,87,87,15,15,44,44,108,108,37,37,18,18,113,113,115,115,20,20,119,119,122,122,78,78,125,125,128,128,127,127,131,131,121,121,34,34,137,137,140,140,142,142,139,139,145,145,146,146,138,138,65,65,120,120,156,156,158,158,99,99,162,162,126,126,166,166,168,168,165,165,124,124,174,174,176,176,173,173,114,114,117,117,58,58,45,45,188,188,46,46,191,191,100,100,155,155,111,111,103,103,172,172,161,161,22,22,167,167,116,116,152,152,198,198,216,216,218,218,175,175,159,159,182,182,66,66,67,67,57,57,180,180,160,160,136,136,238,238,239,239,151,151,48,48,141,141,123,123],"right_children":[2,20,4,6,12,8,34,22,10,26,68,18,14,16,46,106,76,24,114,56,120,48,208,64,38,28,-1,32,30,-1,-1,-1,-1,36,138,58,44,112,40,84,42,-1,-1,54,108,188,192,50,246,74,52,-1,-1,60,62,78,-1,232,186,-1,-1,-1,-1,80,66,154,228,230,70,72,82,-1,-1,-1,-1,-1,94,86,126,102,-1,-1,-1,-1,-1,100,88,104,90,92,-1,-1,-1,98,96,-1,-1,-1,-1,162,196,-1,-1,202,-1,-1,-1,-1,110,-1,-1,200,-1,116,182,118,212,184,-1,122,156,136,124,250,174,128,166,132,130,-1,-1,134,-1,-1,-1,-1,238,140,152,146,142,248,144,-1,-1,148,150,-1,-1,-1,-1,244,214,-1,-1,198,158,-1,160,224,236,206,164,-1,-1,172,168,210,170,-1,-1,-1,204,180,176,222,178,-1,-1,-1,234,-1,226,-1,-1,-1,-1,-1,190,-1,-1,194,-1,-1,-1,-1,-1,-1,216,-1,-1,-1,-1,-1,-1,-1,-1,-1,-1,-1,-1,-1,-1,-1,-1,-1,218,-1,220,-1,-1,-1,-1,-1,-1,-1,-1,-1,-1,-1,-1,-1,-1,-1,-1,-1,-1,-1,240,242,-1,-1,-1,-1,-1,-1,-1,-1,-1,-1,-1],"split_conditions":[9.072149E-1,1E0,6E0,1.849E4,1.1323314E0,2.9E1,1.5933333E-1,6E1,1.1389705E-5,8.972207E0,7.6875E-2,1E0,1.1738E0,7.082153E-1,1.12E-1,7.5840576E-6,5.14707E-6,5.8E1,1.4776735E0,1E0,1.296E4,1E0,5.79E3,2.55E4,6.2E3,4.7E1,4.0093997E-1,4.9628572E0,1.1670234E0,-9.436109E-2,2.6231217E-1,3.488217E-2,2.948786E-1,1.8E4,1.0785134E-5,1E0,4.6568527E0,1E0,1.370482E0,1.3054404E-5,1.1030928E-1,2.2931765E-1,-1.1710456E-2,3.64E0,1.08125E-1,9.6E1,2.0844E4,7.2398293E-6,1.0762113E0,2.5E1,1.5833333E-1,1.1793147E-1,-1.7314477E-2,9.2E1,2.198E4,1.84E2,2.8277665E-1,2.6E1,1.2571429E-1,5.020273E-2,-2.6325068E-1,3.1666737E-2,3.3569625E-1,1.1113044E1,2.7112E4,1.4142857E-1,2.0833333E-1,2.723077E-1,1.083E4,2.7E1,2.2387096E-1,-1.9121172E-1,2.395523E-2,1.4623252E-1,-6.5571226E-2,-0E0,8.38484E-6,1.391565E-5,7.165E3,2.7061224E0,2.1398993E-1,-2.0694646E-1,7.9997174E-2,-1.174488E-1,1.4617044E-1,2.199E4,2.7E1,8.1466335E-1,1.68E2,5.4E1,5.179636E-1,9.203694E-2,-2.379382E-1,1.1388724E0,1.2865497E-5,-0E0,4.3628234E-1,1.05245605E-1,5.05561E-1,1.14E-1,7.2E1,-8.897055E-2,-1.9781747E-1,2.8491163E-1,1.5865189E-1,-2.649892E-1,9.135877E-2,1.8668485E-1,4.2E1,-3.1881955E-1,-4.1991707E-2,4.7384615E0,-2.4581783E-1,8.633E3,2.3068783E0,9.495E-1,1.058782E0,6.8E-1,-1.11806676E-1,5.047E3,1.4142857E-1,1.98E3,5.312E3,5.493827E-2,5.88E-2,4.849E3,5.8E1,2.7E1,4.7E1,5.364674E-1,-1.767382E-2,1.2E1,-2.3970656E-1,-1.9652048E-1,3.050744E-1,8.129294E-2,2.878788E-2,9.277502E-6,2.3790322E-1,1.8162163E-1,1.9771428E-1,5.8E1,2.2387096E-1,-1.1396102E-1,3.269955E-1,4.3E1,2.299E4,2.8762478E-1,-4.6475027E-2,-7.341456E-2,1.379291E-1,1.1504015E-5,1.1695556E1,5.03173E-1,2.7262034E-2,1.3670236E0,1.4342949E-1,2.1943398E-1,1E0,6.4E1,2.1321961E-5,1.3E4,1.75E4,-0E0,-1.8772657E-1,2.5373134E-1,1.08125E-1,7.152156E-1,8.3043665E-1,-7.287129E-2,4.3795127E-1,5.008015E-2,8.4E1,5.404531E-1,2.7515724E0,1.1E4,8.1466335E-1,-1.5954472E-1,1.8845923E-2,7.3864765E-2,1.2495E4,3.9186424E-1,5.6E1,4.947426E-2,4.6122345E-1,-1.5915444E-1,2.1240635E-1,-2.7638194E-1,3.1315384E0,1.5906882E-1,-1.9072223E-1,8.38484E-6,-1.10583104E-1,3.230808E-1,-0E0,-2.3615275E-2,2.9608816E-1,-0E0,1.55E4,-1.5979326E-1,7.230896E-2,-3.586303E-3,-2.2448802E-1,-1.8886374E-1,-3.3803806E-2,-8.8536836E-2,-2.2062768E-1,-0E0,-2.7507848E-1,-5.8744323E-2,-2.4127686E-1,-2.6053143E-1,-0E0,-2.7500257E-1,-0E0,-2.3739457E-1,1.969E4,7.955696E-2,1.7478992E0,-2.4208924E-1,-0E0,2.8915742E-1,-0E0,-9.337723E-2,1.4458776E-1,-3.940884E-3,2.274921E-1,-1.6910768E-1,3.4244243E-2,-2.7291265E-1,-1.574529E-2,1.0731403E-1,4.101073E-1,-2.4149102E-1,-0E0,-2.435412E-1,-4.8238775E-3,-0E0,5.48E3,4.99E3,-2.4193148E-1,-2.3320737E-1,3.0042222E-2,4.3506753E-2,2.8174865E-1,3.571656E-1,1.5676826E-1,3.7628174E-1,6.8929195E-1,2.4457334E-1,4.9511075E-2],"split_indices":[11,9,0,3,11,12,6,1,10,14,6,7,11,13,6,10,10,1,13,7,2,7,2,2,3,1,0,14,11,0,0,0,0,2,10,8,14,9,13,10,6,0,0,14,6,5,3,10,11,1,6,0,0,12,2,12,0,1,13,0,0,0,0,14,3,6,6,13,3,5,6,0,0,0,0,0,10,10,2,13,0,0,0,0,0,3,5,11,12,1,0,0,0,11,10,0,0,0,0,13,5,0,0,11,0,0,0,0,12,0,0,14,0,2,13,13,11,13,0,3,6,3,3,6,6,3,1,5,1,0,0,0,0,0,0,0,6,10,13,6,6,12,6,0,0,1,2,0,0,0,0,10,14,0,0,14,6,0,8,1,10,2,2,0,0,11,6,11,11,0,0,0,5,11,14,2,11,0,0,0,2,0,1,0,0,0,0,0,14,0,0,10,0,0,0,0,0,0,3,0,0,0,0,0,0,0,0,0,0,0,0,0,0,0,0,0,2,0,13,0,0,0,0,0,0,0,0,0,0,0,0,0,0,0,0,0,0,0,2,2,0,0,0,0,0,0,0,0,0,0,0],"split_type":[0,0,0,0,0,0,0,0,0,0,0,0,0,0,0,0,0,0,0,0,0,0,0,0,0,0,0,0,0,0,0,0,0,0,0,0,0,0,0,0,0,0,0,0,0,0,0,0,0,0,0,0,0,0,0,0,0,0,0,0,0,0,0,0,0,0,0,0,0,0,0,0,0,0,0,0,0,0,0,0,0,0,0,0,0,0,0,0,0,0,0,0,0,0,0,0,0,0,0,0,0,0,0,0,0,0,0,0,0,0,0,0,0,0,0,0,0,0,0,0,0,0,0,0,0,0,0,0,0,0,0,0,0,0,0,0,0,0,0,0,0,0,0,0,0,0,0,0,0,0,0,0,0,0,0,0,0,0,0,0,0,0,0,0,0,0,0,0,0,0,0,0,0,0,0,0,0,0,0,0,0,0,0,0,0,0,0,0,0,0,0,0,0,0,0,0,0,0,0,0,0,0,0,0,0,0,0,0,0,0,0,0,0,0,0,0,0,0,0,0,0,0,0,0,0,0,0,0,0,0,0,0,0,0,0,0,0,0,0,0,0,0,0,0,0,0,0,0,0,0,0],"sum_hessian":[8.777095E2,2.4089026E2,6.3681915E2,3.963309E2,2.4048827E2,3.1626443E2,8.006649E1,1.2381161E2,1.9245282E2,1.3340419E2,5.9048622E1,2.1049763E2,2.9990633E1,1.69432E1,1.3047433E1,3.4058573E0,1.3537342E1,1.9894727E2,1.1550366E1,1.4085567E2,1.000346E2,1.1989303E2,3.918578E0,1.406849E2,5.826236E1,1.3145467E2,1.9495332E0,9.4102165E1,3.7352493E1,3.4080223E1,3.2722702E0,8.7913795E1,6.1883707E0,4.1378685E1,3.8687805E1,7.253141E0,3.412554E1,1.0564427E1,4.7697933E1,1.6782473E1,3.091546E1,1.189563E1,1.901983E1,2.4320976E1,9.804566E0,8.835922E0,4.21151E0,1.15281105E2,4.611925E0,2.2246386E1,9.303471E1,7.629512E1,1.6739594E1,1.5175995E1,9.144981E0,1.3931961E2,1.5360457E0,4.6291575E0,2.6239834E0,1.2897316E1,2.2786796E0,4.3668036E0,4.7781777E0,1.3476392E2,5.920989E0,2.5044718E0,3.4165175E0,5.82445E0,5.3224174E1,3.959735E1,1.3626821E1,5.4334445E0,3.4163906E1,4.5504227E0,1.7695963E1,1.7980227E0,1.173932E1,7.569209E1,6.3627525E1,1.3334212E2,1.4217966E0,1.1781948E1,1.8448725E0,1.4500639E1,2.281834E0,4.4082714E1,3.160938E1,1.0883509E1,2.0725872E1,1.970237E1,1.0235019E0,1.729493E1,2.4074397E0,6.4695773E0,5.2697425E0,3.4706302E0,1.7991123E0,1.9014353E0,4.568142E0,4.160131E1,2.4814003E0,1.19507614E2,1.383451E1,9.670799E0,1.2127095E0,1.9342155E0,1.4716419E0,1.0723993E0,8.732167E0,3.062556E0,5.6696115E0,5.246626E0,5.3178015E0,7.090654E0,4.459713E0,4.189951E0,2.9007027E0,2.8425238E0,1.3474271E0,4.7094257E1,5.2940346E1,1.6224997E1,3.0869259E1,2.0572195E0,2.881204E1,8.375281E0,5.5252243E1,6.153334E0,2.2219467E0,1.0207312E0,1.2012155E0,2.6760874E0,3.477247E0,1.0314809E0,1.6446064E0,1.0944902E0,1.5130507E1,3.415327E1,4.5345335E0,2.5936726E1,8.216546E0,2.8673184E0,5.349228E0,1.6843921E0,3.6648357E0,1.2992108E1,1.2944617E1,1.0598834E1,2.393275E0,4.0139093E0,8.930708E0,2.2771454E0,2.2573879E0,1.4832709E0,1.0212008E0,4.1379692E1,1.1560652E1,1.6255864E0,9.935065E0,2.9482946E0,6.986771E0,1.93774E1,2.2223913E1,1.6354033E1,5.8698816E0,3.872272E1,1.6529522E1,9.502056E0,7.027465E0,5.4099555E0,1.6175091E0,1.9519334E0,3.677079E1,9.079741E0,1.97323E1,2.7041438E0,1.7028156E1,1.010445E1,6.923705E0,1.0823462E0,7.997394E0,1.9777756E0,2.4819372E0,1.4504774E0,1.3920466E0,1.4678124E0,1.156171E0,5.1808147E0,3.6551077E0,1.2257336E0,2.4293742E0,2.9925277E0,1.2189825E0,1.6889012E0,1.3036265E0,1.0681111E0,1.4132892E0,1.5185887E0,3.9861103E1,2.3660903E0,2.8805356E0,2.478219E0,7.19258E0,3.2708134E1,4.0626564E0,1.055874E1,8.818659E0,1.0744354E0,2.8441424E0,5.4849215E0,4.017135E0,1.71822E0,1.1824827E0,1.215106E0,1.0422819E0,2.9412148E1,1.0448957E1,1.7592256E0,8.689732E0,6.677042E0,2.0126896E0,1.3994867E0,1.3046571E0,1.6057774E0,1.3425173E0,1.4591527E0,1.0227846E0,2.4121351E0,1.0043824E0,4.656692E0,1.1677581E0,1.0645267E0,3.564631E0,6.887413E0,1.1099812E0,5.8915296E0,1.0952414E0,1.0183275E0,1.411218E1,3.6456978E0,1.0466482E1,2.2969525E0,1.3487453E0,1.0817022E0,1.1954433E0,2.9472857E0,1.6646392E0,1.4099424E0,1.457376E0,1.0254056E0,1.031814E0],"tree_param":{"num_deleted":"0","num_feature":"15","num_nodes":"251","size_leaf_vector":"1"}},{"base_weights":[-7.909422E-2,-3.5095757E-1,6.8082735E-2,1.6779388E-1,-1.9708605E-1,-1.17819384E-1,-4.9029642E-1,1.0061673E-1,4.51717E-1,2.3685093E-1,-3.2452513E-2,-6.791309E-1,-1.2155429E-1,-5.4043937E-1,-1.3929848E-2,5.417135E-2,-6.6802037E-1,-5.189572E-1,2.6044378E-1,1.1712565E-1,-2.4427E-1,-2.9175487E-1,7.6354575E-1,-3.7403518E-1,3.002442E-1,-2.52074E-1,5.9116536E-1,5.856373E-1,1.5166125E-2,-1.0005252E0,-6.556146E-3,-2.5607425E-1,9.509987E-2,5.9542394E-1,-0E0,-0E0,1.0807672E0,5.24748E-2,5.329722E-1,7.9225975E-1,1.9256932E-1,-2.530991E-1,1.1357449E0,-2.1998717E-1,3.6712432E-1,-6.331026E-1,3.204796E-1,7.8567946E-1,-0E0,-4.6321996E-2,3.3958018E-1,2.2323744E-1,-1.8637654E-1,5.7889616E-1,1.2676159E-1,1.775455E-2,4.3271908E-1,1.803573E-2,-1.4170514E-1,4.3094534E-1,-1.19892985E-1,-5.7999965E-2,3.0165628E-1,8.8954514E-1,6.436971E-1,4.6398404E-1,8.5473515E-2,5.234356E-1,-1.2317199E-1,5.427088E-3,-3.3200297E-1,-3.4841043E-1,-6.3131195E-1,-7.434923E-3,3.0955154E-1,4.664296E-1,1.4507936E0,6.5427434E-1,2.583148E-1,-5.5999523E-1,-2.4297124E-1,3.4461936E-1,-6.022738E-1,-8.370766E-1,-4.2179728E-1,2.6819378E-1,-1.0665424E-1,-1.7952627E-1,1.135779E-1,-2.3807131E-1,1.8210765E-3,2.2738236E-1,-1.1180244E-1,6.616675E-1,2.2430095E-1,-2.1769609E-1,3.6719432E-1,5.148136E-1,5.786864E-2,-4.0912226E-1,1.6277578E-1,4.8304597E-1,1.686877E0,2.7001458E-1,-6.621886E-3,1.3255274E-1,8.887448E-1,5.3393953E-2,3.0759546E-1,1.0684055E-1,-8.3461916E-1,-0E0,-1.0101804E0,1.4467001E-1,-2.8007153E-1,-3.5084113E-2,2.8978482E-1,-2.5513485E-1,1.3612066E-1,3.5927743E-1,-0E0,-8.568267E-1,1.2136074E-1,-7.365859E-1,-2.641545E-1,-2.030965E-1,-2.3613793E-1,5.793257E-2,-6.831387E-1,-1.8211687E-1,-7.370937E-2,1.3224731E-1,4.1473964E-1,-7.886804E-1,5.9128083E-2,1.4248168E-1,-5.9706494E-2,4.0982388E-2,-1.9657457E-1,2.2903636E-1,-3.454683E-1,9.7673076E-1,-7.418046E-2,-3.362426E-2,-4.0250117E-1,-3.864523E-2,1.2474602E-1,-1.586803E-1,-2.5788756E-2,5.795588E-1,3.2274023E-1,1.500502E-1,-2.7132136E-1,-2.6637617E-1,2.6999483E-1,2.0989497E-1,-1.1627265E-1,-8.5773593E-1,6.0143992E-2,1.961895E-1,-5.030577E-1,-6.70357E-1,7.363545E-2,-1.0127811E0,5.2557442E-2,-4.7987765E-1,-2.586423E-1,-7.699053E-1,1.02135025E-1,2.4165073E-1,-6.1601628E-2,-0E0,3.6344242E-1,-2.0862994E-1,-0E0,-2.2263952E-1,-0E0,4.9728954E-1,1.5240572E-1,-0E0,-9.940914E-1,-4.5226163E-1,-2.39433E-1,-0E0,-2.3122308E-1,-3.062571E-2,-2.574471E-1,-8.8346946E-1,-0E0,-2.0159805E-2,-2.7303356E-1,-0E0,-1.424061E-1,-4.2443287E-2,-2.7799425E-1,-6.690112E-1,-2.469612E-1,-2.4731502E-1,-2.6737183E-1,1.5660307E-1,-1.7186351E-1,-2.4603544E-1,-4.0660497E-2,8.6035304E-2,-0E0],"categories":[],"categories_nodes":[],"categories_segments":[],"categories_sizes":[],"default_left":[0,0,0,0,0,0,0,0,0,0,0,0,0,0,0,0,0,0,0,0,0,0,0,0,0,0,0,0,0,0,0,0,0,0,0,0,0,0,0,0,0,0,0,0,0,0,0,0,0,0,0,0,0,0,0,0,0,0,0,0,0,0,0,0,0,0,0,0,0,0,0,0,0,0,0,0,0,0,0,0,0,0,0,0,0,0,0,0,0,0,0,0,0,0,0,0,0,0,0,0,0,0,0,0,0,0,0,0,0,0,0,0,0,0,0,0,0,0,0,0,0,0,0,0,0,0,0,0,0,0,0,0,0,0,0,0,0,0,0,0,0,0,0,0,0,0,0,0,0,0,0,0,0,0,0,0,0,0,0,0,0,0,0,0,0,0,0,0,0,0,0,0,0,0,0,0,0,0,0,0,0,0,0,0,0,0,0,0,0,0,0,0,0,0,0,0,0,0,0,0,0,0,0,0,0],"id":6,"left_children":[1,5,3,7,11,13,17,9,67,39,29,109,19,127,15,31,121,71,141,43,21,23,131,99,25,-1,27,-1,-1,189,69,-1,33,35,59,91,37,-1,-1,41,53,-1,63,45,47,111,49,101,117,51,-1,-1,-1,105,55,57,87,-1,-1,61,115,-1,-1,65,-1,-1,-1,75,139,73,-1,123,79,89,-1,93,77,-1,169,81,-1,-1,83,137,85,-1,-1,-1,-1,-1,-1,-1,-1,149,95,-1,97,-1,-1,129,-1,103,177,-1,-1,135,107,-1,-1,155,187,113,185,-1,-1,-1,-1,-1,119,-1,-1,179,-1,157,125,143,-1,153,133,-1,-1,203,-1,165,-1,-1,-1,-1,-1,-1,161,171,159,145,147,-1,-1,-1,-1,151,-1,-1,-1,191,-1,-1,-1,181,-1,-1,175,163,-1,193,-1,167,-1,173,-1,-1,-1,-1,-1,-1,-1,-1,-1,-1,-1,-1,201,183,-1,-1,-1,-1,-1,195,-1,-1,-1,-1,-1,-1,-1,197,-1,-1,199,-1,-1,-1,-1,-1,-1],"loss_changes":[3.388927E1,9.503674E0,1.4473056E1,7.4604597E0,5.213556E0,4.7714157E0,4.058666E0,5.9123755E0,3.2195187E0,3.693636E0,3.8108664E0,2.598956E0,3.8187351E0,2.0078206E0,4.1865706E0,3.7267935E0,2.1140265E0,3.1732368E0,1.7907364E0,3.67619E0,3.9962916E0,4.035839E0,1.9785025E0,2.7315226E0,3.8790984E0,0E0,7.9908895E0,0E0,0E0,4.5499063E-1,3.1963265E0,0E0,3.802463E0,3.7745247E0,3.4022942E0,2.8272004E0,7.14163E0,0E0,0E0,7.555868E0,3.609458E0,0E0,3.223174E0,4.086257E0,3.969781E0,2.4694915E0,3.680746E0,2.687634E0,2.1839333E0,4.543372E0,0E0,0E0,0E0,2.6566806E0,4.1544E0,3.753844E0,2.9974823E0,0E0,0E0,9.350552E0,2.4294195E0,0E0,0E0,4.608183E0,0E0,0E0,0E0,3.0697174E0,1.8575408E0,3.1473317E0,0E0,2.093275E0,3.043991E0,2.8380687E0,0E0,2.789937E0,5.5841174E0,0E0,1.1405607E0,8.018261E0,0E0,0E0,3.53862E0,1.8650894E0,4.4955797E0,0E0,0E0,0E0,0E0,0E0,0E0,0E0,0E0,1.7035828E0,4.8297787E0,0E0,4.8289757E0,0E0,0E0,1.9790583E0,0E0,3.710791E0,7.420683E-1,0E0,0E0,1.9148034E0,3.4189062E0,0E0,0E0,1.6636788E0,4.6582127E-1,3.192861E0,4.6793842E-1,0E0,0E0,0E0,0E0,0E0,2.7112894E0,0E0,0E0,7.171159E-1,0E0,1.6514788E0,2.559039E0,1.7702382E0,0E0,1.6662669E0,1.9168835E0,0E0,0E0,1.4102031E-1,0E0,1.4200735E0,0E0,0E0,0E0,0E0,0E0,0E0,1.5964353E0,1.1188791E0,1.605834E0,2.4411073E0,1.9820008E0,0E0,0E0,0E0,0E0,5.0834637E0,0E0,0E0,0E0,4.3953046E-1,0E0,0E0,0E0,5.695658E-1,0E0,0E0,8.719649E-1,1.7235062E0,0E0,3.39926E-1,0E0,2.5903766E0,0E0,1.0861349E0,0E0,0E0,0E0,0E0,0E0,0E0,0E0,0E0,0E0,0E0,0E0,0E0,2.3288107E-1,1.3568213E0,0E0,0E0,0E0,0E0,0E0,2.718525E-1,0E0,0E0,0E0,0E0,0E0,0E0,0E0,1.1311171E0,0E0,0E0,2.3179274E0,0E0,0E0,0E0,0E0,0E0,0E0],"parents":[2147483647,0,0,2,2,1,1,3,3,7,7,4,4,5,5,14,14,6,6,12,12,20,20,21,21,24,24,26,26,10,10,15,15,32,32,33,33,36,36,9,9,39,39,19,19,43,43,44,44,46,46,49,49,40,40,54,54,55,55,34,34,59,59,42,42,63,63,8,8,30,30,17,17,69,69,67,67,76,76,72,72,79,79,82,82,84,84,56,56,73,73,35,35,75,75,94,94,96,96,23,23,47,47,101,101,53,53,106,106,11,11,45,45,111,111,60,60,48,48,118,118,16,16,71,71,124,124,13,13,99,99,22,22,128,128,105,105,83,83,68,68,18,18,125,125,143,143,144,144,93,93,149,149,127,127,109,109,123,123,142,142,140,140,161,161,133,133,165,165,78,78,141,141,167,167,160,160,102,102,121,121,157,157,181,181,112,112,110,110,29,29,153,153,163,163,187,187,195,195,198,198,180,180,131,131],"right_children":[2,6,4,8,12,14,18,10,68,40,30,110,20,128,16,32,122,72,142,44,22,24,132,100,26,-1,28,-1,-1,190,70,-1,34,36,60,92,38,-1,-1,42,54,-1,64,46,48,112,50,102,118,52,-1,-1,-1,106,56,58,88,-1,-1,62,116,-1,-1,66,-1,-1,-1,76,140,74,-1,124,80,90,-1,94,78,-1,170,82,-1,-1,84,138,86,-1,-1,-1,-1,-1,-1,-1,-1,150,96,-1,98,-1,-1,130,-1,104,178,-1,-1,136,108,-1,-1,156,188,114,186,-1,-1,-1,-1,-1,120,-1,-1,180,-1,158,126,144,-1,154,134,-1,-1,204,-1,166,-1,-1,-1,-1,-1,-1,162,172,160,146,148,-1,-1,-1,-1,152,-1,-1,-1,192,-1,-1,-1,182,-1,-1,176,164,-1,194,-1,168,-1,174,-1,-1,-1,-1,-1,-1,-1,-1,-1,-1,-1,-1,202,184,-1,-1,-1,-1,-1,196,-1,-1,-1,-1,-1,-1,-1,198,-1,-1,200,-1,-1,-1,-1,-1,-1],"split_conditions":[9.8351E-1,1.05E2,1E0,1.849E4,5.994E3,2.072381E0,1.2533889E1,2.1808511E-1,6.49E2,4.914475E-6,1.6917293E0,2.0294573E0,1E0,1.2282091E0,5.4E1,4.5111697E-6,1.0843421E1,1.189E4,1E0,1.056E-1,1E0,9.6E1,4.807857E0,2.599E4,1.03E4,-2.52074E-1,1.2559E4,5.856373E-1,1.5166125E-2,3.5356067E-2,1.8333E4,-2.5607425E-1,2.4705882E0,4.9E1,7.5840576E-6,6.0784314E-2,8.45E-2,5.24748E-2,5.329722E-1,4.9E1,2.2E1,-2.530991E-1,4.862369E-6,7.2E1,1.3846155E-1,3.5586208E-1,1.285E4,7.314375E0,1.4824797E-1,9.573E3,3.3958018E-1,2.2323744E-1,-1.8637654E-1,2.1556962E0,1.1069387E0,1.5965E4,5.5555556E-2,1.803573E-2,-1.4170514E-1,6.8117315E-6,2.8854E4,-5.7999965E-2,3.0165628E-1,1E4,6.436971E-1,4.6398404E-1,8.5473515E-2,1E1,4.7E1,1.739E4,-3.3200297E-1,5E-1,1.391565E-5,4.3514643E-2,3.0955154E-1,5.4E1,2.3346E4,6.5427434E-1,3.5183246E0,2.8491163E-1,-2.4297124E-1,3.4461936E-1,8.5454546E-2,5.312E3,8.6666666E-2,2.6819378E-1,-1.0665424E-1,-1.7952627E-1,1.135779E-1,-2.3807131E-1,1.8210765E-3,2.2738236E-1,-1.1180244E-1,2.7676E4,3.4545E0,-2.1769609E-1,9.189189E-2,5.148136E-1,5.786864E-2,1.4727272E-1,1.6277578E-1,3.3E1,8.246154E0,2.7001458E-1,-6.621886E-3,1.7896494E0,1.02E4,5.3393953E-2,3.0759546E-1,3.6E2,1.1388724E0,8.712121E-2,7.032E3,1.4467001E-1,-2.8007153E-1,-3.5084113E-2,2.8978482E-1,-2.5513485E-1,3.9E0,3.5927743E-1,-0E0,6.7007513E-6,1.2136074E-1,5.047E3,3E1,1E0,-2.3613793E-1,8.257E3,9.6E1,-1.8211687E-1,-7.370937E-2,8.954545E-1,4.1473964E-1,9.95E3,5.9128083E-2,1.4248168E-1,-5.9706494E-2,4.0982388E-2,-1.9657457E-1,